{"learner":{"attributes":{"scikit_learn":"{\"n_estimators\": 70, \"objective\": \"binary:logistic\", \"max_depth\": 3, \"learning_rate\": 0.05, \"verbosity\": null, \"booster\": null, \"tree_method\": null, \"gamma\": 2, \"min_child_weight\": null, \"max_delta_step\": null, \"subsample\": 0.8, \"colsample_bytree\": 0.8, \"colsample_bylevel\": null, \"colsample_bynode\": null, \"reg_alpha\": null, \"reg_lambda\": null, \"scale_pos_weight\": 0.8463949843260188, \"base_score\": null, \"missing\": NaN, \"num_parallel_tree\": null, \"kwargs\": {}, \"random_state\": null, \"n_jobs\": null, \"monotone_constraints\": null, \"interaction_constraints\": null, \"importance_type\": \"gain\", \"gpu_id\": null, \"validate_parameters\": null, \"classes_\": [0, 1], \"n_classes_\": 2, \"_le\": {\"classes_\": [0, 1]}, \"_features_count\": 6, \"n_features_in_\": 6, \"evals_result_\": {\"validation_0\": {\"error\": [0.159593, 0.147708, 0.142615, 0.147708, 0.140917, 0.139219, 0.134126, 0.132428, 0.134126, 0.134126, 0.135823, 0.132428, 0.132428, 0.137521, 0.137521, 0.137521, 0.137521, 0.135823, 0.137521, 0.137521, 0.135823, 0.135823, 0.135823, 0.137521, 0.137521, 0.137521, 0.135823, 0.135823, 0.134126, 0.137521, 0.137521, 0.137521, 0.135823, 0.135823, 0.132428, 0.132428, 0.134126, 0.134126, 0.134126, 0.134126, 0.132428, 0.134126, 0.135823, 0.135823, 0.135823, 0.135823, 0.135823, 0.134126, 0.134126, 0.134126, 0.134126, 0.134126, 0.134126, 0.134126, 0.134126, 0.134126, 0.134126, 0.134126, 0.134126, 0.134126, 0.134126, 0.134126, 0.134126, 0.134126, 0.134126, 0.134126, 0.134126, 0.134126, 0.132428, 0.132428], \"logloss\": [0.66862, 0.644724, 0.622806, 0.602756, 0.584505, 0.568164, 0.552807, 0.5393, 0.526501, 0.514804, 0.503867, 0.49334, 0.483813, 0.474882, 0.465988, 0.457958, 0.450432, 0.443834, 0.437641, 0.431907, 0.426228, 0.42097, 0.416186, 0.411332, 0.406971, 0.403143, 0.399082, 0.395337, 0.391601, 0.388303, 0.384584, 0.38157, 0.378302, 0.375224, 0.372572, 0.370773, 0.368791, 0.367009, 0.365011, 0.363042, 0.361516, 0.359225, 0.356964, 0.355235, 0.353994, 0.352308, 0.350348, 0.348464, 0.346532, 0.345156, 0.344069, 0.342809, 0.341666, 0.34025, 0.339384, 0.337997, 0.336499, 0.335138, 0.334367, 0.333086, 0.331884, 0.331332, 0.330352, 0.329631, 0.328763, 0.328129, 0.327628, 0.327294, 0.326324, 0.325896]}, \"validation_1\": {\"error\": [0.146245, 0.15415, 0.12253, 0.12253, 0.126482, 0.126482, 0.130435, 0.130435, 0.126482, 0.126482, 0.130435, 0.130435, 0.130435, 0.130435, 0.126482, 0.126482, 0.126482, 0.126482, 0.126482, 0.126482, 0.126482, 0.126482, 0.126482, 0.126482, 0.130435, 0.130435, 0.130435, 0.130435, 0.130435, 0.130435, 0.130435, 0.130435, 0.134387, 0.134387, 0.134387, 0.134387, 0.134387, 0.134387, 0.134387, 0.134387, 0.134387, 0.134387, 0.134387, 0.134387, 0.134387, 0.134387, 0.134387, 0.134387, 0.134387, 0.134387, 0.134387, 0.134387, 0.134387, 0.134387, 0.134387, 0.134387, 0.134387, 0.134387, 0.134387, 0.134387, 0.134387, 0.134387, 0.134387, 0.134387, 0.134387, 0.134387, 0.134387, 0.134387, 0.134387, 0.134387], \"logloss\": [0.667664, 0.644352, 0.621547, 0.601955, 0.583051, 0.566364, 0.550167, 0.535849, 0.522362, 0.510052, 0.498467, 0.48803, 0.478759, 0.469272, 0.460888, 0.452371, 0.444833, 0.438061, 0.432018, 0.426361, 0.420637, 0.416442, 0.412078, 0.406995, 0.402964, 0.399248, 0.396396, 0.392051, 0.388654, 0.386613, 0.383374, 0.380336, 0.378414, 0.374882, 0.373807, 0.372144, 0.370205, 0.368313, 0.367108, 0.365402, 0.364291, 0.363521, 0.362141, 0.361547, 0.360708, 0.3596, 0.358065, 0.356407, 0.354834, 0.353812, 0.352685, 0.351657, 0.350636, 0.349294, 0.348913, 0.348847, 0.34885, 0.348194, 0.348047, 0.347332, 0.34708, 0.346569, 0.346316, 0.345826, 0.345211, 0.344426, 0.344197, 0.34359, 0.34347, 0.343067]}}, \"type\": \"XGBClassifier\"}"},"gradient_booster":{"model":{"gbtree_model_param":{"num_trees":"70","size_leaf_vector":"0"},"tree_info":[0,0,0,0,0,0,0,0,0,0,0,0,0,0,0,0,0,0,0,0,0,0,0,0,0,0,0,0,0,0,0,0,0,0,0,0,0,0,0,0,0,0,0,0,0,0,0,0,0,0,0,0,0,0,0,0,0,0,0,0,0,0,0,0,0,0,0,0,0,0],"trees":[{"base_weights":[-1.380224E-2,-1.5370158E0,1.0920378E0,-1.7798511E0,-1.0956866E0,3.1767952E-1,1.549028E0,-5.5339277E-1,-1.1744453E0,2.9254079E-2,8.5231155E-1,4.362745E-1,1.5828532E0],"default_left":[true,true,true,false,true,true,true,true,true,false,false,true,true],"id":0,"leaf_child_counts":[0,0,0,0,0,0,0,0,0,0,0,0,0],"left_children":[1,3,5,-1,-1,9,-1,-1,-1,-1,-1,-1,-1],"loss_changes":[1.8569589E2,3.0189896E0,2.2113136E1,0E0,1.6407967E-1,3.8247862E0,8.1175995E-1,0E0,0E0,0E0,0E0,0E0,0E0],"parents":[2147483647,0,0,1,1,2,2,4,4,5,5,6,6],"right_children":[2,4,6,-1,-1,10,-1,-1,-1,-1,-1,-1,-1],"split_conditions":[9.3303576E-2,6.823276E-2,-4.439325E-1,-8.899256E-2,-5.4784328E-2,2.45E-1,7.74514E-2,-2.7669638E-2,-5.8722265E-2,1.4627039E-3,4.2615578E-2,2.1813726E-2,7.914266E-2],"split_indices":[1,4,5,0,4,1,4,2147483647,2147483647,0,0,2147483647,2147483647],"sum_hessian":[1.0824608E2,4.536677E1,6.287931E1,2.7307993E1,1.8058777E1,2.3965517E1,3.891379E1,3.3079937E0,1.4750784E1,1.6252352E1,7.7131658E0,1.5579937E0,3.7355797E1],"tree_param":{"num_deleted":"4","num_feature":"6","num_nodes":"13","size_leaf_vector":"0"}},{"base_weights":[1.988354E-2,-1.3736485E0,1.2275236E0,-1.5179633E0,-1.9507286E-1,1.5929684E-1,1.4223748E0,-1.7291448E0,-1.1072909E0,5.677962E-1,-5.7712746E-1,7.1250474E-1,-3.7583157E-1,3.4651938E-1,1.4601719E0],"default_left":[true,true,true,true,true,true,true,false,false,false,false,false,false,true,true],"id":1,"leaf_child_counts":[0,0,0,0,0,0,0,0,0,0,0,0,0,0,0],"left_children":[1,3,5,7,9,11,-1,-1,-1,-1,-1,-1,-1,-1,-1],"loss_changes":[1.8738968E2,8.4978485E0,1.2188293E1,2.067398E0,2.3060377E0,3.3250809E0,1.5401611E0,0E0,0E0,0E0,0E0,0E0,0E0,0E0,0E0],"parents":[2147483647,0,0,1,1,2,2,3,3,4,4,5,5,6,6],"right_children":[2,4,6,8,10,12,-1,-1,-1,-1,-1,-1,-1,-1,-1],"split_conditions":[2.4714285E-1,6.961539E-2,-6.555131E-1,6.823276E-2,1.7333335E-1,-7.09512E-1,7.111874E-2,-8.6457245E-2,-5.5364545E-2,2.838981E-2,-2.8856372E-2,3.5625238E-2,-1.8791579E-2,1.732597E-2,7.30086E-2],"split_indices":[4,0,5,4,4,5,1,0,0,0,0,0,0,2147483647,2147483647],"sum_hessian":[1.0934829E2,5.070305E1,5.8645237E1,4.491528E1,5.7877693E0,9.327413E0,4.9317825E1,2.754183E1,1.737345E1,1.7691158E0,4.0186534E0,4.4232535E0,4.904159E0,2.0189285E0,4.7298897E1],"tree_param":{"num_deleted":"2","num_feature":"6","num_nodes":"15","size_leaf_vector":"0"}},{"base_weights":[1.52555695E-2,-1.3143537E0,1.2015404E0,-1.5360082E0,-5.7724535E-1,2.925078E-1,1.3775887E0,-1.5669892E0,-4.4222355E-1,-7.997654E-1,9.971585E-1,6.786186E-1,-6.905679E-1,1.0783948E0,1.6457543E0],"default_left":[true,true,true,true,true,true,true,true,true,false,false,false,false,true,true],"id":2,"leaf_child_counts":[0,0,0,0,0,0,0,0,0,0,0,0,0,0,0],"left_children":[1,3,5,-1,9,11,-1,-1,-1,-1,-1,-1,-1,-1,-1],"loss_changes":[1.6494897E2,7.1706467E0,8.440605E0,5.7141876E-1,5.3529816E0,4.3537064E0,1.9179993E0,0E0,0E0,0E0,0E0,0E0,0E0,0E0,0E0],"parents":[2147483647,0,0,1,1,2,2,3,3,4,4,5,5,6,6],"right_children":[2,4,6,-1,10,12,-1,-1,-1,-1,-1,-1,-1,-1,-1],"split_conditions":[2.3511904E-1,1.2613636E-1,1.3397437E-1,-7.680041E-2,-5.6531906E-1,1.0555556E-1,6.887944E-2,-7.834946E-2,-2.2111177E-2,-3.9988272E-2,4.9857926E-2,3.393093E-2,-3.4528397E-2,5.391974E-2,8.228772E-2],"split_indices":[3,4,0,0,5,0,4,2147483647,2147483647,0,0,0,0,2147483647,2147483647],"sum_hessian":[1.0257588E2,4.8315285E1,5.4260593E1,3.6312103E1,1.20031805E1,9.235294E0,4.50253E1,3.4891197E1,1.4209073E0,1.0947872E1,1.055309E0,6.8533034E0,2.3819911E0,2.3654835E1,2.1370464E1],"tree_param":{"num_deleted":"4","num_feature":"6","num_nodes":"15","size_leaf_vector":"0"}},{"base_weights":[-7.2396393E-3,-1.2610393E0,1.1275817E0,-1.4821762E0,-5.5097806E-1,-8.43998E-3,1.2792326E0,-1.5485427E0,-4.7946325E-1,6.3474816E-1,-7.0399505E-1,9.025332E-1,-7.313595E-1,9.972657E-1,1.5881071E0],"default_left":[true,true,true,true,true,true,true,true,true,false,false,false,false,false,false],"id":3,"leaf_child_counts":[0,0,0,0,0,0,0,0,0,0,0,0,0,0,0],"left_children":[1,3,5,-1,9,11,13,-1,-1,-1,-1,-1,-1,-1,-1],"loss_changes":[1.5267131E2,7.1875153E0,9.714561E0,1.8048172E0,2.9320016E0,5.6829343E0,2.7446365E0,0E0,0E0,0E0,0E0,0E0,0E0,0E0,0E0],"parents":[2147483647,0,0,1,1,2,2,3,3,4,4,5,5,6,6],"right_children":[2,4,6,-1,10,12,14,-1,-1,-1,-1,-1,-1,-1,-1],"split_conditions":[2.3511904E-1,1.2613636E-1,-6.410403E-1,-7.410881E-2,-8.9859164E-1,-7.07841E-1,6.961539E-1,-7.742714E-2,-2.3973163E-2,3.173741E-2,-3.5199754E-2,4.5126658E-2,-3.6567975E-2,4.9863286E-2,7.940536E-2],"split_indices":[3,4,5,1,5,5,4,2147483647,2147483647,0,0,0,0,0,0],"sum_hessian":[1.05301155E2,4.9975185E1,5.5325966E1,3.7278133E1,1.2697054E1,6.6270285E0,4.869894E1,3.445341E1,2.8247223E0,1.0914221E0,1.1605632E1,2.8222136E0,3.8048146E0,2.7669018E1,2.102992E1],"tree_param":{"num_deleted":"2","num_feature":"6","num_nodes":"15","size_leaf_vector":"0"}},{"base_weights":[-1.772142E-2,-1.3951998E0,9.595821E-1,-1.5367125E0,-1.1048983E0,1.4499925E-1,1.2715424E0,3.4609276E-1,-7.8441244E-1,9.6173364E-1,1.5725497E0],"default_left":[true,true,true,true,true,true,true,false,false,false,false],"id":4,"leaf_child_counts":[0,0,0,0,0,0,0,0,0,0,0],"left_children":[1,-1,5,-1,-1,7,9,-1,-1,-1,-1],"loss_changes":[1.4567754E2,1.4689636E-1,1.590432E1,0E0,0E0,3.7591894E0,2.7448044E0,0E0,0E0,0E0,0E0],"parents":[2147483647,0,0,1,1,2,2,5,5,6,6],"right_children":[2,-1,6,-1,-1,8,10,-1,-1,-1,-1],"split_conditions":[9.3303576E-2,-6.975999E-2,2.2361112E-1,-7.6835625E-2,-5.524492E-2,2.0819399E-1,6.833632E-1,1.7304638E-2,-3.9220624E-2,4.8086684E-2,7.862749E-2],"split_indices":[1,4,1,2147483647,2147483647,1,4,0,0,0,0],"sum_hessian":[1.0621824E2,4.3906216E1,6.2312023E1,2.6630962E1,1.7275253E1,1.7660967E1,4.4651054E1,1.5035426E1,2.6255405E0,2.4071129E1,2.0579926E1],"tree_param":{"num_deleted":"2","num_feature":"6","num_nodes":"11","size_leaf_vector":"0"}},{"base_weights":[-1.6384795E-2,-1.0681572E0,1.0779238E0,-1.3802472E0,-3.5126024E-1,7.856303E-1,1.4687941E0,-1.4120438E0,-2.0374218E-1,1.3037336E-1,-6.5711665E-1,1.9345506E-1,9.3380904E-1,3.8174823E-1,1.5067021E0],"default_left":[true,true,true,true,true,true,true,true,true,false,false,false,false,true,true],"id":5,"leaf_child_counts":[0,0,0,0,0,0,0,0,0,0,0,0,0,0,0],"left_children":[1,3,5,-1,9,11,-1,-1,-1,-1,-1,-1,-1,-1,-1],"loss_changes":[1.2346124E2,1.175111E1,4.853077E0,1.1248856E0,2.726726E0,2.6476803E0,3.044281E-1,0E0,0E0,0E0,0E0,0E0,0E0,0E0,0E0],"parents":[2147483647,0,0,1,1,2,2,3,3,4,4,5,5,6,6],"right_children":[2,4,6,-1,10,12,-1,-1,-1,-1,-1,-1,-1,-1,-1],"split_conditions":[2.3273809E-1,5.8333334E-2,6.961539E-1,-6.9012366E-2,1.4415585E-1,1.3397437E-1,7.343971E-2,-7.060219E-2,-1.0187109E-2,6.518668E-3,-3.2855835E-2,9.672753E-3,4.6690453E-2,1.9087411E-2,7.533511E-2],"split_indices":[2,0,4,2,2,0,2,2147483647,2147483647,0,0,0,0,2147483647,2147483647],"sum_hessian":[1.0526735E2,5.368908E1,5.157827E1,3.676061E1,1.6928469E1,3.1232506E1,2.0345764E1,3.5598316E1,1.1622933E0,6.7977543E0,1.0130714E1,6.7125E0,2.4520006E1,1.058641E0,1.9287123E1],"tree_param":{"num_deleted":"4","num_feature":"6","num_nodes":"15","size_leaf_vector":"0"}},{"base_weights":[1.0110294E-2,-1.082322E0,1.0628678E0,-1.3424786E0,-4.233587E-1,-1.676844E-2,1.1375843E0,-1.3741401E0,-1.7096241E-1,7.607902E-2,-7.5204897E-1,4.6316537E-1,-7.5521404E-1,8.984111E-1,1.4292339E0],"default_left":[true,true,true,true,true,true,true,true,true,false,false,true,true,false,false],"id":6,"leaf_child_counts":[0,0,0,0,0,0,0,0,0,0,0,0,0,0,0],"left_children":[1,3,5,-1,9,-1,13,-1,-1,-1,-1,-1,-1,-1,-1],"loss_changes":[1.2722671E2,8.739529E0,4.5631065E0,1.1918411E0,2.8198044E0,1.9912314E0,2.3919983E0,0E0,0E0,0E0,0E0,0E0,0E0,0E0,0E0],"parents":[2147483647,0,0,1,1,2,2,3,3,4,4,5,5,6,6],"right_children":[2,4,6,-1,10,-1,14,-1,-1,-1,-1,-1,-1,-1,-1],"split_conditions":[2.2361112E-1,5.6011904E-2,1.7560667E-1,-6.7123935E-2,1.3809524E-1,-8.3842204E-4,6.961539E-1,-6.870701E-2,-8.548121E-3,3.803951E-3,-3.760245E-2,2.3158269E-2,-3.77607E-2,4.4920556E-2,7.14617E-2],"split_indices":[2,0,1,2,2,4,4,2147483647,2147483647,0,0,2147483647,2147483647,0,0],"sum_hessian":[1.08625275E2,5.3294353E1,5.533092E1,3.7465744E1,1.5828609E1,3.6315444E0,5.1699375E1,3.631143E1,1.1543157E0,6.587533E0,9.241076E0,2.4269764E0,1.2045679E0,3.0647062E1,2.1052313E1],"tree_param":{"num_deleted":"4","num_feature":"6","num_nodes":"15","size_leaf_vector":"0"}},{"base_weights":[2.7042964E-2,-1.0779872E0,9.011135E-1,-1.3454142E0,-5.532569E-1,3.1142956E-1,1.1453966E0,-1.5342146E-1,-8.5228133E-1,1.05515E0,1.5109797E-1,-2.1039852E-1,1.1970832E0],"default_left":[true,true,true,false,true,true,true,true,true,false,false,false,false],"id":7,"leaf_child_counts":[0,0,0,0,0,0,0,0,0,0,0,0,0],"left_children":[1,3,5,-1,-1,9,11,-1,-1,-1,-1,-1,-1],"loss_changes":[1.01990486E2,5.8014336E0,8.133804E0,0E0,1.9551005E0,2.0630465E0,3.1462402E0,0E0,0E0,0E0,0E0,0E0,0E0],"parents":[2147483647,0,0,1,1,2,2,4,4,5,5,6,6],"right_children":[2,4,6,-1,-1,10,12,-1,-1,-1,-1,-1,-1],"split_conditions":[2.45E-1,6.823276E-2,4.6547619E-1,-6.727071E-2,-2.7662847E-2,2.9285717E-1,1.9857143E-1,-7.671073E-3,-4.261407E-2,5.27575E-2,7.5548985E-3,-1.0519926E-2,5.985416E-2],"split_indices":[4,3,4,0,5,4,1,2147483647,2147483647,0,0,0,0],"sum_hessian":[1.03588234E2,4.5646744E1,5.794149E1,2.9200703E1,1.6446041E1,1.7638397E1,4.0303093E1,7.6842494E0,8.761791E0,2.1383433E0,1.5500054E1,1.3672771E0,3.8935814E1],"tree_param":{"num_deleted":"2","num_feature":"6","num_nodes":"13","size_leaf_vector":"0"}},{"base_weights":[1.2113786E-3,-1.0928376E0,8.819317E-1,-1.2052716E0,-7.107529E-2,4.080304E-1,1.1533763E0,-1.3682877E0,-8.729114E-1,7.911138E-1,-4.9330947E-1,6.018584E-1,-2.4177559E-1,1.2872212E0,8.591353E-1],"default_left":[true,true,true,true,true,true,true,true,true,false,false,false,false,true,true],"id":8,"leaf_child_counts":[0,0,0,0,0,0,0,0,0,0,0,0,0,0,0],"left_children":[1,3,5,-1,9,11,-1,-1,-1,-1,-1,-1,-1,-1,-1],"loss_changes":[1.03610596E2,5.4237175E0,7.192642E0,1.1429672E0,2.5078185E0,3.0729632E0,3.6423492E-1,0E0,0E0,0E0,0E0,0E0,0E0,0E0,0E0],"parents":[2147483647,0,0,1,1,2,2,3,3,4,4,5,5,6,6],"right_children":[2,4,6,-1,10,12,-1,-1,-1,-1,-1,-1,-1,-1,-1],"split_conditions":[2.4714285E-1,6.961539E-2,-4.1422355E-1,-6.026358E-2,1.7076924E-1,-4.741568E-1,5.7668816E-2,-6.841438E-2,-4.3645572E-2,3.955569E-2,-2.4665473E-2,3.009292E-2,-1.2088779E-2,6.436106E-2,4.2956766E-2],"split_indices":[4,0,5,4,4,5,1,2147483647,2147483647,0,0,0,0,2147483647,2147483647],"sum_hessian":[1.0552966E2,4.6957386E1,5.8572277E1,4.2140656E1,4.816727E0,2.2242832E1,3.6329445E1,2.6182013E1,1.5958645E1,1.2962295E0,3.5204978E0,1.7189295E1,5.0535374E0,2.2651138E1,1.3678307E1],"tree_param":{"num_deleted":"4","num_feature":"6","num_nodes":"15","size_leaf_vector":"0"}},{"base_weights":[2.9958826E-2,-7.848648E-1,1.0707252E0,-1.0940443E0,-1.1092488E-1,8.7253577E-1,1.3646172E0,-1.3126028E0,-7.0118654E-1,-2.7139887E-1,4.8002246E-1,9.631602E-1,-1.0028088E-1],"default_left":[true,true,true,true,true,true,false,false,false,true,true,false,false],"id":9,"leaf_child_counts":[0,0,0,0,0,0,0,0,0,0,0,0,0],"left_children":[1,3,5,7,-1,11,-1,-1,-1,-1,-1,-1,-1],"loss_changes":[8.2356125E1,1.1232708E1,1.2924881E0,2.277214E0,1.8608989E0,2.5857983E0,0E0,0E0,0E0,0E0,0E0,0E0,0E0],"parents":[2147483647,0,0,1,1,2,2,3,3,4,4,5,5],"right_children":[2,4,6,8,-1,12,-1,-1,-1,-1,-1,-1,-1],"split_conditions":[-5.577613E-1,1.5769231E-1,7.8888893E-1,2.7616633E-2,-5.546244E-3,5.2952385E-1,6.823086E-2,-6.563014E-2,-3.505933E-2,-1.3569944E-2,2.4001123E-2,4.8158012E-2,-5.014044E-3],"split_indices":[5,4,4,0,0,0,0,0,0,2147483647,2147483647,0,0],"sum_hessian":[9.512242E1,5.3490326E1,4.163209E1,3.624093E1,1.72494E1,2.7234856E1,1.4397236E1,2.178187E1,1.4459058E1,1.3990866E1,3.258533E0,2.4923033E1,2.311823E0],"tree_param":{"num_deleted":"2","num_feature":"6","num_nodes":"13","size_leaf_vector":"0"}},{"base_weights":[5.678924E-4,-9.030625E-1,8.6625093E-1,-1.0950325E0,-2.9588488E-1,3.531753E-1,1.0755229E0,-1.378256E0,-9.0151304E-1,2.5501764E-1,-6.131057E-1,5.2390224E-1,-4.1104606E-1,5.478131E-1,1.110259E0],"default_left":[true,true,true,true,true,true,true,true,true,false,false,false,false,true,true],"id":10,"leaf_child_counts":[0,0,0,0,0,0,0,0,0,0,0,0,0,0,0],"left_children":[1,3,5,-1,9,11,-1,-1,-1,-1,-1,-1,-1,-1,-1],"loss_changes":[8.194118E1,5.6498985E0,5.364334E0,8.714714E-1,2.5473661E0,2.4318018E0,7.936859E-2,0E0,0E0,0E0,0E0,0E0,0E0,0E0,0E0],"parents":[2147483647,0,0,1,1,2,2,3,3,4,4,5,5,6,6],"right_children":[2,4,6,-1,10,12,-1,-1,-1,-1,-1,-1,-1,-1,-1],"split_conditions":[2.2361112E-1,6.125E-2,-4.439325E-1,-5.4751623E-2,-8.394562E-1,3.657143E-1,5.3776145E-2,-6.89128E-2,-4.507565E-2,1.2750882E-2,-3.0655285E-2,2.6195113E-2,-2.0552304E-2,2.7390657E-2,5.5512954E-2],"split_indices":[2,0,5,1,5,1,0,2147483647,2147483647,0,0,0,0,2147483647,2147483647],"sum_hessian":[1.0274958E2,5.02518E1,5.249778E1,3.7569927E1,1.2681873E1,1.5987815E1,3.6509964E1,1.2765313E1,2.4804615E1,4.705734E0,7.976139E0,1.3325388E1,2.6624265E0,3.2905686E0,3.3219395E1],"tree_param":{"num_deleted":"4","num_feature":"6","num_nodes":"15","size_leaf_vector":"0"}},{"base_weights":[4.9854077E-2,-8.755065E-1,9.102019E-1,-1.1032745E0,-1.0358335E-1,3.979406E-1,1.0685937E0,-1.3618736E0,-9.01888E-1,6.743339E-1,-5.147582E-1,1.337281E-1,8.620163E-1],"default_left":[true,true,true,true,true,true,false,true,true,false,false,true,true],"id":11,"leaf_child_counts":[0,0,0,0,0,0,0,0,0,0,0,0,0],"left_children":[1,3,5,-1,9,-1,-1,-1,-1,-1,-1,-1,-1],"loss_changes":[8.216896E1,8.633392E0,3.912033E0,7.6708984E-1,4.325995E0,1.6280882E0,0E0,0E0,0E0,0E0,0E0,0E0,0E0],"parents":[2147483647,0,0,1,1,2,2,3,3,4,4,5,5],"right_children":[2,4,6,-1,10,-1,-1,-1,-1,-1,-1,-1,-1],"split_conditions":[2.2361112E-1,6.125E-2,1.7403847E-1,-5.5163722E-2,1.4415585E-1,1.989703E-2,5.342969E-2,-6.809368E-2,-4.50944E-2,3.3716694E-2,-2.5737911E-2,6.6864053E-3,4.3100815E-2],"split_indices":[2,0,0,1,2,5,0,2147483647,2147483647,0,0,2147483647,2147483647],"sum_hessian":[1.01209274E2,4.875377E1,5.24555E1,3.7314342E1,1.1439429E1,1.3218241E1,3.9237263E1,1.3813725E1,2.3500616E1,3.7343173E0,7.705112E0,9.243687E0,3.9745538E0],"tree_param":{"num_deleted":"4","num_feature":"6","num_nodes":"13","size_leaf_vector":"0"}},{"base_weights":[2.353788E-2,-7.60034E-1,9.2207295E-1,-1.2682353E0,-3.302141E-1,6.621444E-1,1.2620014E0,-5.1083352E-2,-5.367681E-1,7.5993514E-1,-1.006366E-1],"default_left":[true,true,true,false,true,true,false,true,true,false,false],"id":12,"leaf_child_counts":[0,0,0,0,0,0,0,0,0,0,0],"left_children":[1,3,5,-1,-1,9,-1,-1,-1,-1,-1],"loss_changes":[6.8174706E1,1.0883108E1,3.1487656E0,0E0,1.6667256E0,2.1395617E0,0E0,0E0,0E0,0E0,0E0],"parents":[2147483647,0,0,1,1,2,2,4,4,5,5],"right_children":[2,4,6,-1,-1,10,-1,-1,-1,-1,-1],"split_conditions":[2.45E-1,6.823276E-2,6.961539E-1,-6.3411765E-2,-1.6510706E-2,5.364341E-1,6.310007E-2,-2.5541678E-3,-2.6838405E-2,3.7996758E-2,-5.03183E-3],"split_indices":[2,4,4,0,5,1,0,2147483647,2147483647,0,0],"sum_hessian":[9.48345E1,5.074031E1,4.4094196E1,2.2356401E1,2.8383907E1,2.6657928E1,1.7436266E1,1.2601684E1,1.5782224E1,2.3631973E1,3.0259564E0],"tree_param":{"num_deleted":"2","num_feature":"6","num_nodes":"11","size_leaf_vector":"0"}},{"base_weights":[-1.0209508E-3,-9.113427E-1,7.1742E-1,-1.0972492E0,-2.6713455E-1,4.7415859E-1,1.1786389E0,-1.1595435E0,-3.2623255E-1,6.763532E-1,-4.8716968E-1,5.426619E-1,-3.5470733E-1,2.5933772E-1,1.2218555E0],"default_left":[true,true,true,true,true,true,true,true,true,false,false,false,false,true,true],"id":13,"leaf_child_counts":[0,0,0,0,0,0,0,0,0,0,0,0,0,0,0],"left_children":[1,3,5,-1,9,11,-1,-1,-1,-1,-1,-1,-1,-1,-1],"loss_changes":[6.4002884E1,4.8765526E0,5.5778713E0,1.2152176E0,2.6108108E0,2.320734E0,4.0674782E-1,0E0,0E0,0E0,0E0,0E0,0E0,0E0,0E0],"parents":[2147483647,0,0,1,1,2,2,3,3,4,4,5,5,6,6],"right_children":[2,4,6,-1,10,12,-1,-1,-1,-1,-1,-1,-1,-1,-1],"split_conditions":[2.4714285E-1,1.2613636E-1,6.961539E-1,-5.486246E-2,9.761905E-2,6.619048E-1,5.8931947E-2,-5.7977177E-2,-1.6311629E-2,3.381766E-2,-2.4358485E-2,2.7133096E-2,-1.7735368E-2,1.2966886E-2,6.1092775E-2],"split_indices":[4,4,4,1,2,2,1,2147483647,2147483647,0,0,0,0,2147483647,2147483647],"sum_hessian":[9.586218E1,4.2166008E1,5.369618E1,3.217705E1,9.988955E0,3.648231E1,1.7213867E1,2.9305405E1,2.8716483E0,1.4968362E0,8.492118E0,3.4016262E1,2.466048E0,1.0872315E0,1.6126637E1],"tree_param":{"num_deleted":"4","num_feature":"6","num_nodes":"15","size_leaf_vector":"0"}},{"base_weights":[2.3391867E-2,-9.303723E-1,6.9330543E-1,-1.205554E0,-5.927905E-1,-5.3259224E-2,9.691147E-1,-1.2363173E0,-3.7263992E-1,-6.9437045E-1,-1.0091934E-1,6.862018E-1,-4.3851438E-1,5.2769345E-1,1.0564196E0],"default_left":[true,true,true,true,true,true,true,true,true,true,true,false,false,true,true],"id":14,"leaf_child_counts":[0,0,0,0,0,0,0,0,0,0,0,0,0,0,0],"left_children":[1,3,5,-1,-1,11,-1,-1,-1,-1,-1,-1,-1,-1,-1],"loss_changes":[6.2540432E1,3.0379486E0,1.1886595E1,8.47435E-2,9.346218E-1,4.9882207E0,1.062027E0,0E0,0E0,0E0,0E0,0E0,0E0,0E0,0E0],"parents":[2147483647,0,0,1,1,2,2,3,3,4,4,5,5,6,6],"right_children":[2,4,6,-1,-1,12,-1,-1,-1,-1,-1,-1,-1,-1,-1],"split_conditions":[1.0875E-1,5.4371923E-2,-5.577613E-1,-6.02777E-2,-2.9639525E-2,-7.0932925E-1,4.8455738E-2,-6.1815865E-2,-1.8631997E-2,-3.4718525E-2,-5.045967E-3,3.431009E-2,-2.192572E-2,2.6384672E-2,5.282098E-2],"split_indices":[1,3,5,0,3,5,5,2147483647,2147483647,2147483647,2147483647,0,0,2147483647,2147483647],"sum_hessian":[9.587208E1,3.939547E1,5.647661E1,2.0287146E1,1.9108322E1,1.5453567E1,4.102304E1,1.909746E1,1.1896853E0,1.5496362E1,3.611961E0,5.0258183E0,1.0427748E1,7.9370217E0,3.308602E1],"tree_param":{"num_deleted":"6","num_feature":"6","num_nodes":"15","size_leaf_vector":"0"}},{"base_weights":[6.604226E-2,-8.1131274E-1,7.3296356E-1,-1.1692036E0,-4.873257E-1,2.2804652E-1,9.301312E-1,-1.202536E0,-3.4526837E-1,-5.665658E-1,6.4307374E-1,6.346163E-1,-1.83361E-1,1.0383974E0,6.420297E-1],"default_left":[true,true,true,true,true,true,true,true,true,false,false,false,false,true,true],"id":15,"leaf_child_counts":[0,0,0,0,0,0,0,0,0,0,0,0,0,0,0],"left_children":[1,3,5,-1,9,11,-1,-1,-1,-1,-1,-1,-1,-1,-1],"loss_changes":[5.7400024E1,4.346716E0,5.331114E0,1.18471146E-1,2.5113516E0,2.953494E0,5.722275E-1,0E0,0E0,0E0,0E0,0E0,0E0,0E0,0E0],"parents":[2147483647,0,0,1,1,2,2,3,3,4,4,5,5,6,6],"right_children":[2,4,6,-1,10,12,-1,-1,-1,-1,-1,-1,-1,-1,-1],"split_conditions":[2.3511904E-1,5.699797E-2,1.7403847E-1,-5.8460183E-2,-5.6531906E-1,1.0555556E-1,4.650656E-2,-6.01268E-2,-1.7263418E-2,-2.832829E-2,3.215369E-2,3.1730816E-2,-9.16805E-3,5.1919874E-2,3.2101486E-2],"split_indices":[3,3,0,0,5,0,1,2147483647,2147483647,0,0,0,0,2147483647,2147483647],"sum_hessian":[9.608215E1,4.140117E1,5.4680984E1,1.843178E1,2.2969389E1,1.5961801E1,3.8719185E1,1.7273476E1,1.158304E0,2.1930845E1,1.0385427E0,7.7552223E0,8.206578E0,2.625027E1,1.2468912E1],"tree_param":{"num_deleted":"4","num_feature":"6","num_nodes":"15","size_leaf_vector":"0"}},{"base_weights":[1.086002E-2,-9.253099E-1,5.5985445E-1,-1.1732804E0,-3.9733404E-1,9.723252E-2,9.2469686E-1,-3.9031535E-2,-1.1434121E0,2.5587088E-1,-1.1172705E0,9.995373E-1,3.385159E-1],"default_left":[true,true,true,false,true,true,true,false,false,false,false,true,true],"id":16,"leaf_child_counts":[0,0,0,0,0,0,0,0,0,0,0,0,0],"left_children":[1,3,5,-1,7,9,-1,-1,-1,-1,-1,-1,-1],"loss_changes":[4.602358E1,3.8681507E0,9.435301E0,0E0,3.1877837E0,5.2952704E0,1.0406494E0,0E0,0E0,0E0,0E0,0E0,0E0],"parents":[2147483647,0,0,1,1,2,2,4,4,5,5,6,6],"right_children":[2,4,6,-1,8,10,-1,-1,-1,-1,-1,-1,-1],"split_conditions":[1.5769231E-1,6.339286E-2,-4.409325E-1,-5.866402E-2,-8.1606567E-1,-4.6710908E-1,4.6234842E-2,-1.9515768E-3,-5.7170607E-2,1.2793544E-2,-5.5863526E-2,4.9976867E-2,1.6925795E-2],"split_indices":[4,3,5,0,5,5,0,0,0,0,0,2147483647,2147483647],"sum_hessian":[8.7540436E1,3.210614E1,5.543429E1,2.1014292E1,1.1091847E1,2.50003E1,3.0433992E1,8.204142E0,2.8877065E0,2.2810158E1,2.1901417E0,2.6362946E1,4.071047E0],"tree_param":{"num_deleted":"2","num_feature":"6","num_nodes":"13","size_leaf_vector":"0"}},{"base_weights":[-4.932529E-2,-7.5255364E-1,6.7518926E-1,-1.1721416E0,-4.404094E-1,1.9426067E-1,8.229286E-1,1.6548803E-1,-5.227618E-1,7.406559E-1,-1.5978739E-1,1.1171957E0,6.674376E-1],"default_left":[true,true,true,false,true,true,true,true,true,false,false,true,true],"id":17,"leaf_child_counts":[0,0,0,0,0,0,0,0,0,0,0,0,0],"left_children":[1,3,5,-1,-1,9,-1,-1,-1,-1,-1,-1,-1],"loss_changes":[4.7348843E1,5.655916E0,3.0949745E0,0E0,1.5147934E0,2.4541295E0,8.436661E-1,0E0,0E0,0E0,0E0,0E0,0E0],"parents":[2147483647,0,0,1,1,2,2,4,4,5,5,6,6],"right_children":[2,4,6,-1,-1,10,-1,-1,-1,-1,-1,-1,-1],"split_conditions":[2.2361112E-1,5.4371923E-2,1.7403847E-1,-5.860708E-2,-2.202047E-2,3.4166667E-1,4.114643E-2,8.274402E-3,-2.6138091E-2,3.7032794E-2,-7.989369E-3,5.5859786E-2,3.337188E-2],"split_indices":[2,3,0,0,2,3,0,2147483647,2147483647,0,0,2147483647,2147483647],"sum_hessian":[9.0934845E1,4.6125656E1,4.4809185E1,1.8501114E1,2.7624544E1,1.1074335E1,3.373485E1,3.184618E0,2.4439926E1,3.924999E0,7.1493363E0,9.5245905E0,2.421026E1],"tree_param":{"num_deleted":"4","num_feature":"6","num_nodes":"13","size_leaf_vector":"0"}},{"base_weights":[-1.5427451E-2,-9.0567386E-1,5.6536067E-1,-1.1137177E0,-6.322163E-1,9.87437E-2,8.118234E-1,1.0824546E-2,-7.60814E-1,-8.8608336E-1,2.0359275E-1,1.2975784E-1,9.08577E-1],"default_left":[true,true,true,true,true,true,true,true,true,false,false,false,false],"id":18,"leaf_child_counts":[0,0,0,0,0,0,0,0,0,0,0,0,0],"left_children":[1,-1,5,-1,-1,9,11,-1,-1,-1,-1,-1,-1],"loss_changes":[4.839164E1,1.397749E0,6.435625E0,0E0,1.5195489E0,2.3200114E0,2.3196106E0,0E0,0E0,0E0,0E0,0E0,0E0],"parents":[2147483647,0,0,1,1,2,2,4,4,5,5,6,6],"right_children":[2,-1,6,-1,-1,10,12,-1,-1,-1,-1,-1,-1],"split_conditions":[9.3303576E-2,-4.5283694E-2,3.5634923E-1,-5.5685885E-2,-3.1610813E-2,1.5833333E-1,1.6267857E-1,5.4122735E-4,-3.80407E-2,-4.430417E-2,1.0179638E-2,6.487892E-3,4.5428853E-2],"split_indices":[1,4,2,2147483647,2147483647,4,0,2147483647,2147483647,0,0,0,0],"sum_hessian":[9.160248E1,3.594528E1,5.56572E1,1.8669209E1,1.7276072E1,1.9720984E1,3.593622E1,3.0317776E0,1.4244294E1,1.1806186E0,1.8540365E1,4.7552357E0,3.1180983E1],"tree_param":{"num_deleted":"4","num_feature":"6","num_nodes":"13","size_leaf_vector":"0"}},{"base_weights":[-4.9431447E-2,-9.0841883E-1,4.880296E-1,-1.1519916E0,-4.973345E-1,2.59691E-1,1.0388529E0,-1.2486211E-1,-9.416073E-1,-6.1171234E-1,3.0787882E-1,2.2363564E-1,1.0870103E0],"default_left":[true,true,true,false,true,true,true,false,false,true,true,true,true],"id":19,"leaf_child_counts":[0,0,0,0,0,0,0,0,0,0,0,0,0],"left_children":[1,3,5,-1,7,-1,-1,-1,-1,-1,-1,-1,-1],"loss_changes":[4.0160213E1,2.7773685E0,6.4677553E0,0E0,2.233691E0,1.834516E0,3.601265E-1,0E0,0E0,0E0,0E0,0E0,0E0],"parents":[2147483647,0,0,1,1,2,2,4,4,5,5,6,6],"right_children":[2,4,6,-1,8,-1,-1,-1,-1,-1,-1,-1,-1],"split_conditions":[9.3303576E-2,6.291209E-2,6.961539E-1,-5.759958E-2,1.09642856E-1,1.2984551E-2,5.1942647E-2,-6.2431055E-3,-4.7080364E-2,-3.0585617E-2,1.5393942E-2,1.1181782E-2,5.4350514E-2],"split_indices":[1,3,4,0,3,4,1,0,0,2147483647,2147483647,2147483647,2147483647],"sum_hessian":[8.50283E1,3.24598E1,5.2568497E1,1.9251007E1,1.3208795E1,3.8203186E1,1.4365309E1,7.8818254E0,5.326969E0,1.3891007E0,3.6814087E1,1.1160702E0,1.3249239E1],"tree_param":{"num_deleted":"4","num_feature":"6","num_nodes":"13","size_leaf_vector":"0"}},{"base_weights":[-3.7800804E-2,-6.4027137E-1,6.981052E-1,-1.076637E0,-3.5634482E-1,4.4849947E-1,1.0369883E0,-6.042968E-1,-1.1909696E0,-4.476348E-1,5.529053E-1,1.2206041E0,2.721068E-1],"default_left":[true,true,true,true,true,true,false,true,true,false,false,false,false],"id":20,"leaf_child_counts":[0,0,0,0,0,0,0,0,0,0,0,0,0],"left_children":[1,3,5,-1,9,11,-1,-1,-1,-1,-1,-1,-1],"loss_changes":[3.9295326E1,5.650154E0,2.9117641E0,2.9029465E-1,2.8205388E0,3.0388026E0,0E0,0E0,0E0,0E0,0E0,0E0,0E0],"parents":[2147483647,0,0,1,1,2,2,3,3,4,4,5,5],"right_children":[2,4,6,-1,10,12,-1,-1,-1,-1,-1,-1,-1],"split_conditions":[2.45E-1,5.699797E-2,6.961539E-1,-5.3831853E-2,-5.577613E-1,3.96E-1,5.1849414E-2,-3.021484E-2,-5.954848E-2,-2.238174E-2,2.7645266E-2,6.1030205E-2,1.360534E-2],"split_indices":[2,3,4,5,5,4,0,2147483647,2147483647,0,0,0,0],"sum_hessian":[8.6622246E1,4.7700676E1,3.892157E1,1.7702229E1,2.9998447E1,2.3751074E1,1.5170495E1,4.674789E0,1.302744E1,2.7722734E1,2.2757127E0,3.3160915E0,2.0434982E1],"tree_param":{"num_deleted":"2","num_feature":"6","num_nodes":"13","size_leaf_vector":"0"}},{"base_weights":[2.860446E-2,-6.065748E-1,6.537623E-1,-1.0309988E0,-2.5608775E-1,6.850783E-2,7.505883E-1,-1.9377168E-2,-8.8492155E-1,6.82703E-1,-4.356482E-1,5.934761E-1,1.0197362E0],"default_left":[true,true,true,false,true,true,true,false,false,false,false,true,true],"id":21,"leaf_child_counts":[0,0,0,0,0,0,0,0,0,0,0,0,0],"left_children":[1,3,5,-1,7,9,-1,-1,-1,-1,-1,-1,-1],"loss_changes":[3.452325E1,6.1545057E0,2.4303036E0,0E0,3.6986504E0,2.5632322E0,9.795742E-1,0E0,0E0,0E0,0E0,0E0,0E0],"parents":[2147483647,0,0,1,1,2,2,4,4,5,5,6,6],"right_children":[2,4,6,-1,8,10,-1,-1,-1,-1,-1,-1,-1],"split_conditions":[2.3273809E-1,6.823276E-2,1.225E-1,-5.154994E-2,-7.0932925E-1,4.0945053E-1,3.7529416E-2,-9.688584E-4,-4.4246078E-2,3.413515E-2,-2.1782411E-2,2.9673805E-2,5.0986808E-2],"split_indices":[2,4,0,0,5,4,4,0,0,0,0,2147483647,2147483647],"sum_hessian":[8.494256E1,4.2148315E1,4.279424E1,1.8185219E1,2.3963099E1,6.317333E0,3.6476906E1,1.8158535E1,5.8045645E0,2.6882205E0,3.6291127E0,2.5055845E1,1.1421061E1],"tree_param":{"num_deleted":"2","num_feature":"6","num_nodes":"13","size_leaf_vector":"0"}},{"base_weights":[2.7718185E-2,-7.4310315E-1,4.8697305E-1,-1.0713017E0,-3.910686E-1,1.243301E-1,7.6610076E-1,2.918533E-1,-5.221315E-1,9.089527E-1,-3.1679865E-2,3.0418807E-1,8.2756025E-1],"default_left":[true,true,true,false,true,true,true,true,true,false,false,true,true],"id":22,"leaf_child_counts":[0,0,0,0,0,0,0,0,0,0,0,0,0],"left_children":[1,3,5,-1,-1,9,-1,-1,-1,-1,-1,-1,-1],"loss_changes":[3.0985786E1,3.3584042E0,5.4531813E0,0E0,1.7052221E0,3.0931807E0,6.220646E-1,0E0,0E0,0E0,0E0,0E0,0E0],"parents":[2147483647,0,0,1,1,2,2,4,4,5,5,6,6],"right_children":[2,4,6,-1,-1,10,-1,-1,-1,-1,-1,-1,-1],"split_conditions":[9.3303576E-2,5.4371923E-2,3.823077E-1,-5.3565085E-2,-1.955343E-2,1.2916666E-1,3.830504E-2,1.4592665E-2,-2.6106576E-2,4.5447636E-2,-1.5839933E-3,1.5209404E-2,4.1378014E-2],"split_indices":[1,3,2,0,2,1,0,2147483647,2147483647,0,0,2147483647,2147483647],"sum_hessian":[8.55074E1,3.1693844E1,5.381356E1,1.5344827E1,1.6349016E1,2.4033997E1,2.9779562E1,2.4348848E0,1.3914132E1,3.1857288E0,2.0848269E1,4.1956472E0,2.5583916E1],"tree_param":{"num_deleted":"4","num_feature":"6","num_nodes":"13","size_leaf_vector":"0"}},{"base_weights":[1.6427008E-2,-7.353651E-1,5.7224673E-1,-1.0464774E0,-4.115984E-1,2.9253542E-2,6.897224E-1,-1.1063042E0,-4.553633E-1,-5.0378513E-1,2.610352E-1,9.90812E-1,-5.3592646E-1,5.496906E-1,1.042153E0],"default_left":[true,true,true,true,true,true,true,true,true,true,true,false,false,true,true],"id":23,"leaf_child_counts":[0,0,0,0,0,0,0,0,0,0,0,0,0,0,0],"left_children":[1,3,5,-1,-1,11,-1,-1,-1,-1,-1,-1,-1,-1,-1],"loss_changes":[3.5341698E1,3.1914997E0,3.0805874E0,1.21837616E-1,1.3264105E0,5.797299E0,1.397232E0,0E0,0E0,0E0,0E0,0E0,0E0,0E0,0E0],"parents":[2147483647,0,0,1,1,2,2,3,3,4,4,5,5,6,6],"right_children":[2,4,6,-1,-1,12,-1,-1,-1,-1,-1,-1,-1,-1,-1],"split_conditions":[2.3443224E-1,2.672619E-2,2.45E-1,-5.2323874E-2,-2.0579921E-2,1.0428572E-1,3.4486122E-2,-5.5315208E-2,-2.2768166E-2,-2.5189256E-2,1.305176E-2,4.95406E-2,-2.6796324E-2,2.748453E-2,5.210765E-2],"split_indices":[4,0,2,3,0,0,3,2147483647,2147483647,2147483647,2147483647,0,0,2147483647,2147483647],"sum_hessian":[8.257062E1,3.4960552E1,4.7610065E1,1.6690346E1,1.8270206E1,8.690426E0,3.891964E1,1.4364914E1,2.3254318E0,1.6288797E1,1.9814095E0,2.9383047E0,5.752121E0,2.9684687E1,9.234953E0],"tree_param":{"num_deleted":"6","num_feature":"6","num_nodes":"15","size_leaf_vector":"0"}},{"base_weights":[2.1873608E-2,-7.7776563E-1,5.1427966E-1,-1.0038427E0,-3.9870653E-1,3.2160395E-1,9.704672E-1,-1.1012028E0,-4.927939E-1,-9.307417E-2,-6.756336E-1,1.1461974E0,2.3492184E-1,1.4630076E-1,1.0206732E0],"default_left":[true,true,true,true,true,true,true,true,true,true,true,false,false,true,true],"id":24,"leaf_child_counts":[0,0,0,0,0,0,0,0,0,0,0,0,0,0,0],"left_children":[1,3,5,-1,-1,11,-1,-1,-1,-1,-1,-1,-1,-1,-1],"loss_changes":[3.2868206E1,2.3269558E0,4.2264776E0,4.1641045E-1,1.0838041E0,2.4324715E0,4.6461105E-1,0E0,0E0,0E0,0E0,0E0,0E0,0E0,0E0],"parents":[2147483647,0,0,1,1,2,2,3,3,4,4,5,5,6,6],"right_children":[2,4,6,-1,-1,12,-1,-1,-1,-1,-1,-1,-1,-1,-1],"split_conditions":[9.3303576E-2,6.948276E-2,6.961539E-1,-5.0192136E-2,-1.9935327E-2,1.4642859E-1,4.8523363E-2,-5.5060145E-2,-2.4639694E-2,-4.6537085E-3,-3.378168E-2,5.7309873E-2,1.1746093E-2,7.3150382E-3,5.1033657E-2],"split_indices":[1,4,4,0,2,2,2,2147483647,2147483647,2147483647,2147483647,0,0,2147483647,2147483647],"sum_hessian":[8.145954E1,3.082385E1,5.063569E1,1.8275684E1,1.2548166E1,3.6798447E1,1.383724E1,1.4381139E1,3.8945465E0,6.600062E0,5.948105E0,2.3376598E0,3.446079E1,1.0192658E0,1.2817974E1],"tree_param":{"num_deleted":"6","num_feature":"6","num_nodes":"15","size_leaf_vector":"0"}},{"base_weights":[-1.7491689E-2,-4.87446E-1,5.279681E-1,-1.0018889E0,-2.5348464E-1,3.9056355E-1,9.740685E-1,-1.1035237E0,-4.0026534E-1,-3.1160387E-1,6.250964E-1,5.2132666E-1,-4.542485E-1,1.6414908E-1,1.0721807E0],"default_left":[true,true,true,true,true,true,true,true,true,true,true,false,false,true,true],"id":25,"leaf_child_counts":[0,0,0,0,0,0,0,0,0,0,0,0,0,0,0],"left_children":[1,3,5,-1,-1,11,-1,-1,-1,-1,-1,-1,-1,-1,-1],"loss_changes":[2.1178658E1,5.0854235E0,1.9643393E0,3.8556767E-1,1.8202267E0,3.6519547E0,4.8660946E-1,0E0,0E0,0E0,0E0,0E0,0E0,0E0,0E0],"parents":[2147483647,0,0,1,1,2,2,3,3,4,4,5,5,6,6],"right_children":[2,4,6,-1,-1,12,-1,-1,-1,-1,-1,-1,-1,-1,-1],"split_conditions":[2.45E-1,5.4371923E-2,7.8888893E-1,-5.0094444E-2,-1.2674232E-2,6.619048E-1,4.870343E-2,-5.5176187E-2,-2.0013267E-2,-1.5580194E-2,3.125482E-2,2.6066333E-2,-2.2712424E-2,8.207454E-3,5.360904E-2],"split_indices":[2,3,3,1,5,2,5,2147483647,2147483647,2147483647,2147483647,0,0,2147483647,2147483647],"sum_hessian":[8.061507E1,4.3361908E1,3.7253162E1,1.2529437E1,3.083247E1,2.9914595E1,7.338566E0,1.0005005E1,2.5244317E0,2.9524706E1,1.3077636E0,2.6236519E1,3.678076E0,1.0817512E0,6.256815E0],"tree_param":{"num_deleted":"6","num_feature":"6","num_nodes":"15","size_leaf_vector":"0"}},{"base_weights":[5.667394E-2,-5.0493747E-1,6.44583E-1,-8.960664E-1,-1.822444E-1,-5.309744E-1,6.9576216E-1,-9.5697033E-1,-1.125743E-1,1.492769E-1,-8.251367E-1,5.803967E-1,9.9825734E-1],"default_left":[true,true,true,true,true,false,true,true,true,false,false,true,true],"id":26,"leaf_child_counts":[0,0,0,0,0,0,0,0,0,0,0,0,0],"left_children":[1,3,5,-1,9,-1,-1,-1,-1,-1,-1,-1,-1],"loss_changes":[2.7666489E1,5.2527647E0,2.8298817E0,8.0575085E-1,5.402064E0,0E0,8.033371E-1,0E0,0E0,0E0,0E0,0E0,0E0],"parents":[2147483647,0,0,1,1,2,2,3,3,4,4,6,6],"right_children":[2,4,6,-1,10,-1,-1,-1,-1,-1,-1,-1,-1],"split_conditions":[-6.277516E-1,6.823276E-2,3.471761E-2,-4.480332E-2,-7.0932925E-1,-2.6548719E-2,3.478811E-2,-4.784852E-2,-5.6287153E-3,7.463845E-3,-4.1256838E-2,2.9019836E-2,4.9912866E-2],"split_indices":[5,3,0,0,5,0,3,2147483647,2147483647,0,0,2147483647,2147483647],"sum_hessian":[8.180729E1,4.191158E1,3.9895714E1,1.8143463E1,2.3768118E1,1.2733243E0,3.8622387E1,1.662938E1,1.5140826E0,1.6188152E1,7.5799656E0,3.0072176E1,8.550212E0],"tree_param":{"num_deleted":"4","num_feature":"6","num_nodes":"13","size_leaf_vector":"0"}},{"base_weights":[-4.4632483E-2,-5.4020727E-1,5.839257E-1,-7.6106316E-1,-1.3060439E-1,4.0903398E-1,8.445092E-1,-1.0689254E0,-6.073388E-1,-2.6395518E-1,8.466931E-1,5.160084E-1,-5.764226E-1,2.4324968E-1,8.853089E-1],"default_left":[true,true,true,true,true,true,true,true,true,false,false,false,false,true,true],"id":27,"leaf_child_counts":[0,0,0,0,0,0,0,0,0,0,0,0,0,0,0],"left_children":[1,3,5,-1,9,11,-1,-1,-1,-1,-1,-1,-1,-1,-1],"loss_changes":[2.5360126E1,4.0144663E0,1.2918243E0,7.3924255E-1,2.4569309E0,2.7680945E0,1.1554432E-1,0E0,0E0,0E0,0E0,0E0,0E0,0E0,0E0],"parents":[2147483647,0,0,1,1,2,2,3,3,4,4,5,5,6,6],"right_children":[2,4,6,-1,10,12,-1,-1,-1,-1,-1,-1,-1,-1,-1],"split_conditions":[2.6476192E-1,1.6025642E-1,6.961539E-1,-3.805316E-2,-4.4392133E-1,5.2952385E-1,4.222546E-2,-5.344627E-2,-3.036694E-2,-1.3197759E-2,4.2334657E-2,2.580042E-2,-2.882113E-2,1.2162484E-2,4.4265445E-2],"split_indices":[2,4,4,0,5,0,2,2147483647,2147483647,0,0,0,0,2147483647,2147483647],"sum_hessian":[7.94009E1,4.4475555E1,3.4925346E1,2.8337864E1,1.613769E1,2.2436605E1,1.2488739E1,7.4547644E0,2.08831E1,1.4842382E1,1.2953079E0,2.0669268E1,1.767338E0,1.2360029E0,1.1252736E1],"tree_param":{"num_deleted":"4","num_feature":"6","num_nodes":"15","size_leaf_vector":"0"}},{"base_weights":[-6.756981E-2,-8.58494E-1,4.0497324E-1,-1.0179261E0,-4.0213838E-1,-5.4861676E-2,6.065072E-1,-1.0606419E0,-4.600806E-1,1.5043707E-1,-5.854426E-1,5.655509E-1,-4.973299E-1,1.1816871E0,4.9829596E-1],"default_left":[true,true,true,true,true,true,true,true,true,true,true,false,false,true,true],"id":28,"leaf_child_counts":[0,0,0,0,0,0,0,0,0,0,0,0,0,0,0],"left_children":[1,-1,5,-1,-1,11,-1,-1,-1,-1,-1,-1,-1,-1,-1],"loss_changes":[2.9058716E1,1.7043743E0,4.5527425E0,9.489059E-3,1.0173721E0,4.612483E0,1.5267649E0,0E0,0E0,0E0,0E0,0E0,0E0,0E0,0E0],"parents":[2147483647,0,0,1,1,2,2,3,3,4,4,5,5,6,6],"right_children":[2,-1,6,-1,-1,12,-1,-1,-1,-1,-1,-1,-1,-1,-1],"split_conditions":[9.3303576E-2,-4.29247E-2,-5.577613E-1,-5.0896306E-2,-2.010692E-2,-7.09512E-1,3.0325359E-2,-5.3032096E-2,-2.300403E-2,7.521854E-3,-2.927213E-2,2.8277546E-2,-2.4866495E-2,5.9084356E-2,2.49148E-2],"split_indices":[1,1,5,2147483647,2147483647,5,1,2147483647,2147483647,2147483647,2147483647,0,0,2147483647,2147483647],"sum_hessian":[7.581974E1,2.8051493E1,4.776825E1,1.9876795E1,8.174699E0,1.4777831E1,3.2990417E1,1.7625818E1,2.2509768E0,2.0809433E0,6.0937557E0,6.0360837E0,8.741747E0,3.653045E0,2.9337374E1],"tree_param":{"num_deleted":"8","num_feature":"6","num_nodes":"15","size_leaf_vector":"0"}},{"base_weights":[-3.2836206E-2,-6.637886E-1,3.6685687E-1,-7.5839114E-1,8.2049504E-2,5.7704695E-2,6.9850963E-1,-1.0510358E0,-5.9582734E-1,6.733411E-1,-6.646473E-1,2.6921242E-1,-5.5158204E-1,-2.4044931E-2,7.954854E-1],"default_left":[true,true,true,true,true,true,true,true,true,false,false,false,false,true,true],"id":29,"leaf_child_counts":[0,0,0,0,0,0,0,0,0,0,0,0,0,0,0],"left_children":[1,3,5,-1,9,11,-1,-1,-1,-1,-1,-1,-1,-1,-1],"loss_changes":[1.9289114E1,2.1538448E0,4.766124E0,6.299257E-1,2.3191974E0,3.4155676E0,1.597517E0,0E0,0E0,0E0,0E0,0E0,0E0,0E0,0E0],"parents":[2147483647,0,0,1,1,2,2,3,3,4,4,5,5,6,6],"right_children":[2,4,6,-1,10,12,-1,-1,-1,-1,-1,-1,-1,-1,-1],"split_conditions":[1.5692309E-1,6.1818182E-2,4.1702896E-1,-3.791956E-2,1.4107144E-1,4.0833333E-1,3.4925483E-2,-5.2551787E-2,-2.9791368E-2,3.3667054E-2,-3.3232365E-2,1.3460621E-2,-2.7579103E-2,-1.2022465E-3,3.977427E-2],"split_indices":[3,0,2,0,3,3,0,2147483647,2147483647,0,0,0,0,2147483647,2147483647],"sum_hessian":[7.452164E1,2.8643883E1,4.5877758E1,2.5404705E1,3.2391784E0,2.4351938E1,2.1525818E1,7.1207237E0,1.8283981E1,1.8625273E0,1.3766512E0,1.8491093E1,5.8608446E0,2.6361597E0,1.8889658E1],"tree_param":{"num_deleted":"4","num_feature":"6","num_nodes":"15","size_leaf_vector":"0"}},{"base_weights":[2.2610663E-2,-3.7018558E-1,8.035812E-1,-9.549116E-1,-1.651865E-1,9.6600467E-1,5.050352E-1,-1.0059263E0,-1.7815116E-1,-5.519939E-2,-1.2921052E0,2.3374942E-1,1.1110435E0,1.9866252E-2,9.8530823E-1],"default_left":[true,true,true,true,true,true,true,true,true,false,false,true,true,false,false],"id":30,"leaf_child_counts":[0,0,0,0,0,0,0,0,0,0,0,0,0,0,0],"left_children":[1,3,5,-1,9,-1,13,-1,-1,-1,-1,-1,-1,-1,-1],"loss_changes":[2.3573835E1,5.975926E0,7.5871086E-1,3.3885384E-1,4.7745314E0,1.3921919E0,2.579383E0,0E0,0E0,0E0,0E0,0E0,0E0,0E0,0E0],"parents":[2147483647,0,0,1,1,2,2,3,3,4,4,5,5,6,6],"right_children":[2,4,6,-1,10,-1,14,-1,-1,-1,-1,-1,-1,-1,-1],"split_conditions":[-4.439325E-1,5.4371923E-2,-1.3837694E-1,-4.774558E-2,-4.7884256E-1,4.8300233E-2,7.8888893E-1,-5.0296314E-2,-8.907558E-3,-2.7599696E-3,-6.460526E-2,1.16874715E-2,5.5552173E-2,9.933127E-4,4.926541E-2],"split_indices":[5,3,5,0,5,5,3,2147483647,2147483647,0,0,2147483647,2147483647,0,0],"sum_hessian":[7.487751E1,5.017003E1,2.4707481E1,1.2073693E1,3.8096336E1,1.4553807E1,1.0153674E1,1.1052762E1,1.0209316E0,3.566447E1,2.4318647E0,2.837879E0,1.1715928E1,5.5691333E0,4.584541E0],"tree_param":{"num_deleted":"4","num_feature":"6","num_nodes":"15","size_leaf_vector":"0"}},{"base_weights":[4.086704E-3,-5.0465095E-1,3.7115872E-1,-8.6413336E-1,-2.697093E-1,1.806514E-1,8.5790974E-1,-2.9080653E-1,-1.0382056E0,1.06973514E-1,-6.3097346E-1,3.4236524E-1,-6.6924894E-1,1.2903962E-1,9.135569E-1],"default_left":[true,true,true,true,true,true,true,true,true,false,false,false,false,true,true],"id":31,"leaf_child_counts":[0,0,0,0,0,0,0,0,0,0,0,0,0,0,0],"left_children":[1,3,5,-1,9,11,-1,-1,-1,-1,-1,-1,-1,-1,-1],"loss_changes":[1.4283043E1,2.474637E0,3.9642425E0,9.174175E-1,2.9037519E0,4.791209E0,3.7810898E-1,0E0,0E0,0E0,0E0,0E0,0E0,0E0,0E0],"parents":[2147483647,0,0,1,1,2,2,3,3,4,4,5,5,6,6],"right_children":[2,4,6,-1,10,12,-1,-1,-1,-1,-1,-1,-1,-1,-1],"split_conditions":[2.4714285E-1,5.4371923E-2,6.961539E-1,-4.320667E-2,-8.6972106E-1,6.619048E-1,4.289549E-2,-1.4540327E-2,-5.191028E-2,5.348676E-3,-3.1548675E-2,1.7118262E-2,-3.3462446E-2,6.4519807E-3,4.5677844E-2],"split_indices":[4,3,4,5,5,4,2,2147483647,2147483647,0,0,0,0,2147483647,2147483647],"sum_hessian":[7.4481865E1,3.1059978E1,4.342189E1,1.1217735E1,1.9842245E1,3.2193108E1,1.1228781E1,3.2346516E0,7.9830832E0,1.0058422E1,9.783822E0,2.7548515E1,4.644593E0,1.0318913E0,1.0196889E1],"tree_param":{"num_deleted":"4","num_feature":"6","num_nodes":"15","size_leaf_vector":"0"}},{"base_weights":[-4.673652E-2,-5.115936E-1,4.9643293E-1,-7.082434E-1,-6.350212E-2,6.282029E-1,1.0209814E-1,-1.046506E0,-5.033498E-1,7.9358536E-1,-2.9733366E-1,4.6807843E-1,1.0537838E0,-7.8906906E-1,8.378966E-1],"default_left":[true,true,true,true,true,true,true,true,true,false,false,true,true,false,false],"id":32,"leaf_child_counts":[0,0,0,0,0,0,0,0,0,0,0,0,0,0,0],"left_children":[1,3,5,-1,9,-1,13,-1,-1,-1,-1,-1,-1,-1,-1],"loss_changes":[1.8880892E1,3.5011768E0,1.7299614E0,1.4048929E0,2.9161034E0,1.2571115E0,7.114707E0,0E0,0E0,0E0,0E0,0E0,0E0,0E0,0E0],"parents":[2147483647,0,0,1,1,2,2,3,3,4,4,5,5,6,6],"right_children":[2,4,6,-1,10,-1,14,-1,-1,-1,-1,-1,-1,-1,-1],"split_conditions":[2.45E-1,9.3303576E-2,5.2952385E-1,-3.5412174E-2,1.4642859E-1,3.1410147E-2,6.3111115E-1,-5.2325305E-2,-2.516749E-2,3.967927E-2,-1.4866683E-2,2.3403922E-2,5.268919E-2,-3.9453454E-2,4.189483E-2],"split_indices":[2,1,1,1,2,2,1,2147483647,2147483647,0,0,2147483647,2147483647,0,0],"sum_hessian":[7.277111E1,3.924363E1,3.3527477E1,2.6870596E1,1.2373032E1,2.4685543E1,8.841935E0,8.586851E0,1.8283745E1,2.1389775E0,1.0234054E1,1.9462608E1,5.222935E0,3.9660406E0,4.8758945E0],"tree_param":{"num_deleted":"4","num_feature":"6","num_nodes":"15","size_leaf_vector":"0"}},{"base_weights":[5.414197E-2,-5.5122113E-1,5.999114E-1,-1.0413171E0,-3.544798E-1,4.008269E-1,1.0028265E0,-2.3638809E-1,-1.010995E0,5.1870245E-1,-6.5552354E-1],"default_left":[true,true,true,false,true,true,false,true,true,false,false],"id":33,"leaf_child_counts":[0,0,0,0,0,0,0,0,0,0,0],"left_children":[1,3,5,-1,-1,9,-1,-1,-1,-1,-1],"loss_changes":[2.369353E1,2.9137917E0,2.6193752E0,0E0,1.7620952E0,3.6864877E0,0E0,0E0,0E0,0E0,0E0],"parents":[2147483647,0,0,1,1,2,2,4,4,5,5],"right_children":[2,4,6,-1,-1,10,-1,-1,-1,-1,-1],"split_conditions":[2.2361112E-1,2.7185962E-2,6.961539E-1,-5.2065857E-2,-1.772399E-2,6.619048E-1,5.0141323E-2,-1.1819405E-2,-5.0549753E-2,2.5935123E-2,-3.2776177E-2],"split_indices":[2,1,4,0,1,2,0,2147483647,2147483647,0,0],"sum_hessian":[6.97132E1,3.3047356E1,3.666585E1,8.236603E0,2.4810751E1,2.5875378E1,1.0790475E1,2.2180979E1,2.6297736E0,2.3735733E1,2.139645E0],"tree_param":{"num_deleted":"2","num_feature":"6","num_nodes":"11","size_leaf_vector":"0"}},{"base_weights":[8.340922E-2,-2.7830583E-1,6.777719E-1,-9.929411E-1,-1.3558847E-1,-5.5054575E-1,7.790465E-1,-4.9150687E-2,-9.6491295E-1,1.1317092E0,2.120434E-1],"default_left":[true,true,true,false,true,false,true,false,false,false,false],"id":34,"leaf_child_counts":[0,0,0,0,0,0,0,0,0,0,0],"left_children":[1,3,5,-1,7,-1,9,-1,-1,-1,-1],"loss_changes":[1.5266664E1,4.3844566E0,3.765849E0,0E0,2.6831357E0,0E0,4.798194E0,0E0,0E0,0E0,0E0],"parents":[2147483647,0,0,1,1,2,2,4,4,6,6],"right_children":[2,4,6,-1,8,-1,10,-1,-1,-1,-1],"split_conditions":[4.6547619E-1,2.672619E-2,6.619048E-2,-4.9647056E-2,3.2666665E-1,-2.7527288E-2,4.95E-1,-2.4575344E-3,-4.824565E-2,5.658546E-2,1.0602171E-2],"split_indices":[4,1,0,0,1,0,1,0,0,0,0],"sum_hessian":[6.9133675E1,4.3308754E1,2.5824923E1,6.2176147E0,3.7091137E1,1.6291727E0,2.4195751E1,3.454943E1,2.5417082E0,1.4303411E1,9.892341E0],"tree_param":{"num_deleted":"0","num_feature":"6","num_nodes":"11","size_leaf_vector":"0"}},{"base_weights":[9.892323E-3,-5.619835E-1,2.9548934E-1,-9.8457426E-1,-3.5514095E-1,6.4357575E-3,5.964022E-1,2.7223974E-1,-4.6156868E-1,4.8614007E-1,-1.473883E-1,8.1257373E-1,2.589363E-1],"default_left":[true,true,true,true,true,true,true,true,true,true,true,true,true],"id":35,"leaf_child_counts":[0,0,0,0,0,0,0,0,0,0,0,0,0],"left_children":[1,-1,5,-1,-1,-1,-1,-1,-1,-1,-1,-1,-1],"loss_changes":[1.1430644E1,1.6884098E0,4.0540915E0,0E0,1.2753413E0,1.9021341E0,1.456295E0,0E0,0E0,0E0,0E0,0E0,0E0],"parents":[2147483647,0,0,1,1,2,2,4,4,5,5,6,6],"right_children":[2,-1,6,-1,-1,-1,-1,-1,-1,-1,-1,-1,-1],"split_conditions":[5.3035714E-2,-2.8099177E-2,3.823077E-1,-4.9228713E-2,-1.7757049E-2,3.2178787E-4,2.9820113E-2,1.3611987E-2,-2.3078434E-2,2.4307003E-2,-7.369415E-3,4.0628687E-2,1.2946814E-2],"split_indices":[0,1,2,2147483647,2147483647,2,1,2147483647,2147483647,2147483647,2147483647,2147483647,2147483647],"sum_hessian":[6.7969925E1,2.23163E1,4.5653625E1,6.097912E0,1.6218388E1,2.380663E1,2.1846996E1,2.1262693E0,1.4092118E1,5.2558284E0,1.85508E1,1.245853E1,9.388465E0],"tree_param":{"num_deleted":"8","num_feature":"6","num_nodes":"13","size_leaf_vector":"0"}},{"base_weights":[-7.326863E-2,-7.0360017E-1,2.5699055E-1,-9.746732E-1,-4.0823087E-1,-3.3430118E-2,6.353352E-1,-1.0354881E0,-1.6104677E-1,1.55013455E-2,-7.56918E-1,2.1688223E-1,-3.318779E-1,8.231577E-1,2.942185E-1],"default_left":[true,true,true,true,true,true,true,true,true,true,true,false,false,true,true],"id":36,"leaf_child_counts":[0,0,0,0,0,0,0,0,0,0,0,0,0,0,0],"left_children":[1,-1,5,-1,-1,11,-1,-1,-1,-1,-1,-1,-1,-1,-1],"loss_changes":[1.4744882E1,1.5493994E0,5.146063E0,4.2509174E-1,1.9856036E0,2.1141381E0,1.0586967E0,0E0,0E0,0E0,0E0,0E0,0E0,0E0,0E0],"parents":[2147483647,0,0,1,1,2,2,3,3,4,4,5,5,6,6],"right_children":[2,-1,6,-1,-1,12,-1,-1,-1,-1,-1,-1,-1,-1,-1],"split_conditions":[1.5769231E-1,-3.518001E-2,5.071429E-1,-4.8733663E-2,-2.0411544E-2,3.2403845E-1,3.176676E-2,-5.177441E-2,-8.052339E-3,7.750673E-4,-3.7845902E-2,1.0844111E-2,-1.6593894E-2,4.1157886E-2,1.47109255E-2],"split_indices":[4,3,3,2147483647,2147483647,3,1,2147483647,2147483647,2147483647,2147483647,0,0,2147483647,2147483647],"sum_hessian":[6.8961426E1,2.3320862E1,4.5640564E1,1.0961331E1,1.23595295E1,2.6336262E1,1.9304302E1,9.945283E0,1.016048E0,6.0107183E0,6.3488116E0,1.4471831E1,1.1864429E1,1.1538147E1,7.7661557E0],"tree_param":{"num_deleted":"8","num_feature":"6","num_nodes":"15","size_leaf_vector":"0"}},{"base_weights":[-2.7407719E-2,-8.100574E-1,2.313717E-1,-3.332352E-1,-9.1135055E-1,1.0731399E-1,9.936145E-1,-7.7388686E-1,3.6507216E-1,-9.9779844E-1,-1.9920126E-1,7.9252243E-1,5.1026423E-2],"default_left":[true,true,true,true,true,true,false,true,true,true,true,true,true],"id":37,"leaf_child_counts":[0,0,0,0,0,0,0,0,0,0,0,0,0],"left_children":[1,-1,5,-1,-1,-1,-1,-1,-1,-1,-1,-1,-1],"loss_changes":[1.3909484E1,5.201645E-1,4.7817097E0,1.6872556E0,6.3188076E-1,1.7175134E0,0E0,0E0,0E0,0E0,0E0,0E0,0E0],"parents":[2147483647,0,0,1,1,2,2,3,3,4,4,5,5],"right_children":[2,-1,6,-1,-1,-1,-1,-1,-1,-1,-1,-1,-1],"split_conditions":[7.75E-2,-4.0502872E-2,7.8888893E-1,-1.6661761E-2,-4.5567527E-2,5.3656995E-3,4.9680725E-2,-3.8694344E-2,1.8253608E-2,-4.9889922E-2,-9.960063E-3,3.962612E-2,2.5513212E-3],"split_indices":[3,5,3,2147483647,2147483647,3,0,2147483647,2147483647,2147483647,2147483647,2147483647,2147483647],"sum_hessian":[6.6752E1,1.6057518E1,5.0694485E1,3.56511E0,1.2492407E1,4.4579758E1,6.114726E0,2.1194468E0,1.4456631E0,1.0782419E1,1.7099878E0,2.3911812E0,4.218858E1],"tree_param":{"num_deleted":"8","num_feature":"6","num_nodes":"13","size_leaf_vector":"0"}},{"base_weights":[1.3344205E-2,-2.9322982E-1,6.4296913E-1,-6.943625E-1,-7.308261E-2,3.3888504E-2,7.292643E-1,-9.5623153E-1,-4.863417E-1,9.239391E-1,-1.778343E-1,2.6538634E-1,-3.0179557E-1,8.1578535E-1,1.5173215E-1],"default_left":[true,true,true,true,true,true,true,true,true,false,false,true,true,true,true],"id":38,"leaf_child_counts":[0,0,0,0,0,0,0,0,0,0,0,0,0,0,0],"left_children":[1,3,-1,-1,9,-1,-1,-1,-1,-1,-1,-1,-1,-1,-1],"loss_changes":[1.3678027E1,4.160335E0,1.1945868E0,4.4900513E-1,3.4966087E0,3.8530397E-1,8.89102E-1,0E0,0E0,0E0,0E0,0E0,0E0,0E0,0E0],"parents":[2147483647,0,0,1,1,2,2,3,3,4,4,5,5,6,6],"right_children":[2,4,-1,-1,10,-1,-1,-1,-1,-1,-1,-1,-1,-1,-1],"split_conditions":[3.823077E-1,7.75E-2,3.2148458E-2,-3.4718126E-2,9.5454544E-2,1.6944252E-3,3.6463216E-2,-4.781158E-2,-2.4317086E-2,4.6196956E-2,-8.891716E-3,1.3269317E-2,-1.5089779E-2,4.078927E-2,7.5866072E-3],"split_indices":[2,3,4,0,3,2147483647,2147483647,2147483647,2147483647,0,0,2147483647,2147483647,2147483647,2147483647],"sum_hessian":[6.888408E1,4.6686153E1,2.2197926E1,1.5779701E1,3.0906452E1,2.9275641E0,1.927036E1,5.3933825E0,1.0386318E1,2.19493E0,2.8711521E1,1.8566079E0,1.0709563E0,1.6400795E1,2.869567E0],"tree_param":{"num_deleted":"8","num_feature":"6","num_nodes":"15","size_leaf_vector":"0"}},{"base_weights":[-1.8183988E-2,-5.189973E-1,2.2964679E-1,-9.735468E-1,-2.8878307E-1,8.4707595E-2,8.882003E-1,1.4488831E-1,-8.905871E-1,1.3358602E-1,-5.650664E-1,1.5819344E-1,9.83637E-1],"default_left":[true,true,true,false,true,true,true,false,false,true,true,true,true],"id":39,"leaf_child_counts":[0,0,0,0,0,0,0,0,0,0,0,0,0],"left_children":[1,3,5,-1,7,-1,-1,-1,-1,-1,-1,-1,-1],"loss_changes":[8.616603E0,2.1225963E0,4.36246E0,0E0,4.4796033E0,1.3208271E0,4.2133808E-1,0E0,0E0,0E0,0E0,0E0,0E0],"parents":[2147483647,0,0,1,1,2,2,4,4,5,5,6,6],"right_children":[2,4,6,-1,8,-1,-1,-1,-1,-1,-1,-1,-1],"split_conditions":[1.6025642E-1,2.672619E-2,7.8888893E-1,-4.867734E-2,-8.6653936E-1,4.23538E-3,4.4410016E-2,7.2444156E-3,-4.4529356E-2,6.679301E-3,-2.825332E-2,7.909672E-3,4.918185E-2],"split_indices":[4,1,4,0,5,2,2,0,0,2147483647,2147483647,2147483647,2147483647],"sum_hessian":[6.7462975E1,2.19707E1,4.5492275E1,6.3009114E0,1.5669788E1,3.8211124E1,7.2811522E0,9.5483265E0,6.121462E0,3.627667E1,1.9344544E0,1.1491027E0,6.1320496E0],"tree_param":{"num_deleted":"4","num_feature":"6","num_nodes":"13","size_leaf_vector":"0"}},{"base_weights":[-1.2963602E-1,-3.6625502E-1,3.7085804E-1,-4.4300172E-1,5.597461E-1,1.5734664E-1,8.351099E-1,-9.5579237E-1,-3.4286353E-1,1.0033726E-1,7.7678174E-1,9.595742E-1,-2.8590837E-2,7.711998E-2,9.4953847E-1],"default_left":[true,true,true,true,true,true,true,true,true,true,true,false,false,true,true],"id":40,"leaf_child_counts":[0,0,0,0,0,0,0,0,0,0,0,0,0,0,0],"left_children":[1,3,5,-1,-1,11,-1,-1,-1,-1,-1,-1,-1,-1,-1],"loss_changes":[8.483821E0,3.685217E0,2.160822E0,1.9944601E0,3.352046E-1,2.5740035E0,5.384984E-1,0E0,0E0,0E0,0E0,0E0,0E0,0E0,0E0],"parents":[2147483647,0,0,1,1,2,2,3,3,4,4,5,5,6,6],"right_children":[2,4,6,-1,-1,12,-1,-1,-1,-1,-1,-1,-1,-1,-1],"split_conditions":[3.823077E-1,-3.6975312E-1,7.8888893E-1,-2.2150086E-2,2.7987305E-2,2.6476192E-1,4.1755494E-2,-4.778962E-2,-1.7143177E-2,5.016863E-3,3.8839087E-2,4.797871E-2,-1.4295419E-3,3.8559989E-3,4.7476925E-2],"split_indices":[2,5,4,1,1,1,5,2147483647,2147483647,2147483647,2147483647,0,0,2147483647,2147483647],"sum_hessian":[6.9490974E1,4.736595E1,2.2125027E1,4.422241E1,3.143543E0,1.6072254E1,6.052773E0,5.8288927E0,3.8393517E1,1.4777765E0,1.6657665E0,2.2413232E0,1.383093E1,1.0134571E0,5.0393157E0],"tree_param":{"num_deleted":"6","num_feature":"6","num_nodes":"15","size_leaf_vector":"0"}},{"base_weights":[4.029831E-2,-5.2805597E-1,3.623241E-1,-9.35199E-1,-1.9713724E-1,4.5713395E-1,-4.5445528E-2,2.3928005E-1,-7.9923546E-1,2.3431887E-1,7.238356E-1,-7.0496756E-1,8.927928E-1],"default_left":[true,true,true,false,true,true,true,false,false,true,true,false,false],"id":41,"leaf_child_counts":[0,0,0,0,0,0,0,0,0,0,0,0,0],"left_children":[1,3,5,-1,7,-1,11,-1,-1,-1,-1,-1,-1],"loss_changes":[1.2200187E1,3.067706E0,1.6629162E0,0E0,4.0229597E0,1.8837304E0,6.150534E0,0E0,0E0,0E0,0E0,0E0,0E0],"parents":[2147483647,0,0,1,1,2,2,4,4,5,5,6,6],"right_children":[2,4,6,-1,8,-1,12,-1,-1,-1,-1,-1,-1],"split_conditions":[9.302884E-2,5.4371923E-2,5.2952385E-1,-4.675995E-2,6.3961044E-2,2.2856697E-2,6.4857143E-1,1.1964003E-2,-3.9961774E-2,1.1715944E-2,3.619178E-2,-3.524838E-2,4.4639643E-2],"split_indices":[1,3,1,0,1,2,1,0,0,2147483647,2147483647,0,0],"sum_hessian":[6.461332E1,2.3137451E1,4.1475872E1,9.55521E0,1.3582241E1,3.355337E1,7.9225E0,8.223913E0,5.358328E0,1.9304262E1,1.4249108E1,4.7982564E0,3.1242435E0],"tree_param":{"num_deleted":"2","num_feature":"6","num_nodes":"13","size_leaf_vector":"0"}},{"base_weights":[-3.9019924E-2,-4.9366426E-1,2.6955876E-1,-9.4931215E-1,-3.2697293E-1,2.2479773E-2,5.1362693E-1,8.474795E-3,-6.4036566E-1,3.2854173E-1,-9.692072E-1,8.046734E-1,1.8973287E-2],"default_left":[true,true,true,false,true,true,true,false,false,false,false,false,false],"id":42,"leaf_child_counts":[0,0,0,0,0,0,0,0,0,0,0,0,0],"left_children":[1,3,5,-1,7,9,11,-1,-1,-1,-1,-1,-1],"loss_changes":[9.429367E0,1.7512608E0,2.4078028E0,0E0,2.2550373E0,6.686944E0,2.8837652E0,0E0,0E0,0E0,0E0,0E0,0E0],"parents":[2147483647,0,0,1,1,2,2,4,4,5,5,6,6],"right_children":[2,4,6,-1,8,10,12,-1,-1,-1,-1,-1,-1],"split_conditions":[2.4714285E-1,2.672619E-2,-4.1422355E-1,-4.7465608E-2,-8.6972106E-1,-4.7884256E-1,5.2952385E-1,4.2373975E-4,-3.2018285E-2,1.6427087E-2,-4.846036E-2,4.0233668E-2,9.486644E-4],"split_indices":[4,1,5,0,5,5,1,0,0,0,0,0,0],"sum_hessian":[6.5263176E1,2.6144047E1,3.911913E1,5.745043E0,2.0399004E1,1.9982368E1,1.913676E1,1.032275E1,1.0076254E1,1.578071E1,4.2016582E0,1.1653363E1,7.4833965E0],"tree_param":{"num_deleted":"0","num_feature":"6","num_nodes":"13","size_leaf_vector":"0"}},{"base_weights":[3.7139595E-2,-2.813078E-1,6.9712067E-1,-7.53865E-1,-7.717443E-2,1.3071094E-1,7.6782006E-1,-2.74209E-1,-8.326985E-1,2.0678751E-1,-3.483104E-1,7.413492E-1,-5.0516224E-1,9.5464337E-1,3.4563336E-1],"default_left":[true,true,true,true,true,true,true,true,true,false,false,true,true,true,true],"id":43,"leaf_child_counts":[0,0,0,0,0,0,0,0,0,0,0,0,0,0,0],"left_children":[1,3,-1,-1,9,-1,-1,-1,-1,-1,-1,-1,-1,-1,-1],"loss_changes":[1.3635855E1,4.1715035E0,7.445955E-1,2.6750898E-1,2.5152953E0,1.7516228E0,1.1334515E0,0E0,0E0,0E0,0E0,0E0,0E0,0E0,0E0],"parents":[2147483647,0,0,1,1,2,2,3,3,4,4,5,5,6,6],"right_children":[2,4,-1,-1,10,-1,-1,-1,-1,-1,-1,-1,-1,-1,-1],"split_conditions":[3.823077E-1,4.1517857E-2,3.4856033E-2,-3.769325E-2,-7.098416E-1,6.5355473E-3,3.8391005E-2,-1.3710449E-2,-4.163493E-2,1.0339376E-2,-1.7415522E-2,3.706746E-2,-2.5258113E-2,4.773217E-2,1.7281668E-2],"split_indices":[2,1,3,5,5,2147483647,2147483647,2147483647,2147483647,0,0,2147483647,2147483647,2147483647,2147483647],"sum_hessian":[6.2947266E1,4.284695E1,2.0100313E1,1.2113012E1,3.073394E1,2.546644E0,1.7553669E1,2.3419497E0,9.771063E0,1.5127827E1,1.56061125E1,1.2144827E0,1.3321613E0,1.129451E1,6.2591596E0],"tree_param":{"num_deleted":"8","num_feature":"6","num_nodes":"15","size_leaf_vector":"0"}},{"base_weights":[-3.9213398E-3,-4.456312E-1,3.302123E-1,-5.0859636E-1,4.858245E-1,1.5968378E-1,8.106967E-1,-2.8706405E-1,-8.838785E-1,7.563212E-1,2.7059268E-2,3.0700895E-1,9.689591E-1],"default_left":[true,true,true,true,true,true,true,true,true,false,false,true,true],"id":44,"leaf_child_counts":[0,0,0,0,0,0,0,0,0,0,0,0,0],"left_children":[1,-1,5,-1,-1,9,-1,-1,-1,-1,-1,-1,-1],"loss_changes":[9.734412E0,1.9128141E0,2.947844E0,1.9985943E0,0E0,2.27147E0,4.671917E-1,0E0,0E0,0E0,0E0,0E0,0E0],"parents":[2147483647,0,0,1,1,2,2,3,3,5,5,6,6],"right_children":[2,-1,6,-1,-1,10,-1,-1,-1,-1,-1,-1,-1],"split_conditions":[8.2051285E-2,-2.2281561E-2,6.961539E-1,-2.5429819E-2,2.4291225E-2,-7.198335E-1,4.0534835E-2,-1.4353203E-2,-4.4193927E-2,3.781606E-2,1.3529634E-3,1.5350448E-2,4.8447955E-2],"split_indices":[0,5,4,2147483647,2147483647,5,0,2147483647,2147483647,0,0,2147483647,2147483647],"sum_hessian":[6.3958683E1,2.7401464E1,3.6557217E1,2.6091679E1,1.3097862E0,2.796464E1,8.592578E0,1.7516478E1,8.575201E0,4.2304416E0,2.3734198E1,2.7572372E0,5.8353405E0],"tree_param":{"num_deleted":"6","num_feature":"6","num_nodes":"13","size_leaf_vector":"0"}},{"base_weights":[3.709495E-2,-6.847982E-1,2.1817073E-1,-9.227215E-1,-4.224094E-1,-2.9281178E-2,5.3785974E-1,7.735261E-2,-9.436836E-1,1.213687E0,-1.22624926E-1,7.467178E-1,1.8996425E-1],"default_left":[true,true,true,false,true,true,true,false,false,false,false,true,true],"id":45,"leaf_child_counts":[0,0,0,0,0,0,0,0,0,0,0,0,0],"left_children":[1,3,5,-1,7,9,-1,-1,-1,-1,-1,-1,-1],"loss_changes":[8.637198E0,4.3820667E-1,4.1823235E0,0E0,2.1965413E0,3.703491E0,1.5316868E0,0E0,0E0,0E0,0E0,0E0,0E0],"parents":[2147483647,0,0,1,1,2,2,4,4,5,5,6,6],"right_children":[2,4,6,-1,8,10,-1,-1,-1,-1,-1,-1,-1],"split_conditions":[4.1517857E-2,2.672619E-2,4.6547619E-1,-4.6136077E-2,4.107143E-2,-9.5114094E-1,2.6892988E-2,3.8676306E-3,-4.718418E-2,6.068435E-2,-6.131246E-3,3.733589E-2,9.4982125E-3],"split_indices":[1,1,4,0,2,5,1,0,0,0,0,2147483647,2147483647],"sum_hessian":[6.393243E1,1.2262761E1,5.166967E1,5.1113663E0,7.1513953E0,2.9637491E1,2.2032179E1,4.0858097E0,3.0655854E0,1.2318467E0,2.8405643E1,1.3050789E1,8.98139E0],"tree_param":{"num_deleted":"2","num_feature":"6","num_nodes":"13","size_leaf_vector":"0"}},{"base_weights":[6.268682E-3,-5.522921E-1,3.162109E-1,-9.2210954E-1,-2.419841E-1,6.1460916E-2,5.8185804E-1,2.160611E-1,-5.4227823E-1,2.1587332E-1,-1.0656437E0,7.761608E-1,1.6753826E-1],"default_left":[true,true,true,false,true,true,true,false,false,false,false,true,true],"id":46,"leaf_child_counts":[0,0,0,0,0,0,0,0,0,0,0,0,0],"left_children":[1,3,5,-1,7,9,-1,-1,-1,-1,-1,-1,-1],"loss_changes":[1.1614287E1,2.5247912E0,2.8832135E0,0E0,2.0945816E0,4.256657E0,1.5602832E0,0E0,0E0,0E0,0E0,0E0,0E0],"parents":[2147483647,0,0,1,1,2,2,4,4,5,5,6,6],"right_children":[2,4,6,-1,8,10,-1,-1,-1,-1,-1,-1,-1],"split_conditions":[9.3303576E-2,5.699797E-2,-4.439325E-1,-4.6105478E-2,3.6607146E-2,-4.668091E-1,2.9092902E-2,1.0803055E-2,-2.7113913E-2,1.0793666E-2,-5.3282183E-2,3.880804E-2,8.376913E-3],"split_indices":[1,3,5,0,0,5,1,0,0,0,0,2147483647,2147483647],"sum_hessian":[6.507869E1,2.2945555E1,4.2133137E1,9.569393E0,1.3376161E1,2.213628E1,1.9996857E1,5.4078894E0,7.968271E0,2.0180094E1,1.9561856E0,1.3018336E1,6.97852E0],"tree_param":{"num_deleted":"2","num_feature":"6","num_nodes":"13","size_leaf_vector":"0"}},{"base_weights":[8.56252E-2,-3.3253032E-1,4.6428528E-1,-9.034859E-1,-2.0650515E-1,2.7682704E-1,9.0473104E-1,-1.0347737E-1,-1.0763888E0,8.516945E-1,6.120741E-3,2.9741666E-1,9.8320705E-1],"default_left":[true,true,true,false,true,true,true,false,false,false,false,true,true],"id":47,"leaf_child_counts":[0,0,0,0,0,0,0,0,0,0,0,0,0],"left_children":[1,3,5,-1,7,9,-1,-1,-1,-1,-1,-1,-1],"loss_changes":[1.0200937E1,2.0249577E0,2.5332031E0,0E0,2.26127E0,3.899324E0,1.6627836E-1,0E0,0E0,0E0,0E0,0E0,0E0],"parents":[2147483647,0,0,1,1,2,2,4,4,5,5,6,6],"right_children":[2,4,6,-1,8,10,-1,-1,-1,-1,-1,-1,-1],"split_conditions":[2.2361112E-1,2.0638946E-2,6.961539E-1,-4.5174297E-2,2.130357E-1,4.0833333E-1,4.5236554E-2,-5.173869E-3,-5.3819444E-2,4.258473E-2,3.0603705E-4,1.4870833E-2,4.9160354E-2],"split_indices":[2,0,4,0,2,4,0,0,0,0,0,2147483647,2147483647],"sum_hessian":[6.244969E1,2.973503E1,3.2714664E1,4.2610955E0,2.5473934E1,2.409016E1,8.624504E0,2.37768E1,1.6971346E0,7.0252533E0,1.7064907E1,1.535031E0,7.0894732E0],"tree_param":{"num_deleted":"2","num_feature":"6","num_nodes":"13","size_leaf_vector":"0"}},{"base_weights":[-1.2588031E-2,-2.7976957E-1,5.2325094E-1,-9.0757084E-1,-1.7618492E-1,3.5561317E-1,9.24698E-1,-9.418565E-2,-1.1877737E0,5.7366234E-1,-9.2957455E-1],"default_left":[true,true,true,false,true,true,false,false,false,false,false],"id":48,"leaf_child_counts":[0,0,0,0,0,0,0,0,0,0,0],"left_children":[1,3,5,-1,7,9,-1,-1,-1,-1,-1],"loss_changes":[9.343096E0,2.6699862E0,1.1329846E0,0E0,3.0894861E0,5.282648E0,0E0,0E0,0E0,0E0,0E0],"parents":[2147483647,0,0,1,1,2,2,4,4,5,5],"right_children":[2,4,6,-1,8,10,-1,-1,-1,-1,-1],"split_conditions":[-4.439325E-1,2.672619E-2,6.961539E-1,-4.5378543E-2,-4.668091E-1,6.619048E-1,4.6234902E-2,-4.7092824E-3,-5.9388686E-2,2.8683117E-2,-4.647873E-2],"split_indices":[5,1,2,0,5,2,0,0,0,0,0],"sum_hessian":[6.323794E1,4.2516254E1,2.072169E1,4.922223E0,3.759403E1,1.5947926E1,4.773764E0,3.57863E1,1.8077273E0,1.4107959E1,1.839967E0],"tree_param":{"num_deleted":"0","num_feature":"6","num_nodes":"11","size_leaf_vector":"0"}},{"base_weights":[-5.683892E-2,-3.36366E-1,2.7271137E-1,-6.921411E-1,-2.063447E-1,1.2107261E-1,7.87511E-1,-1.3715345E-2,-9.3144727E-1,7.549506E-1,-2.86198E-1,2.8158277E-1,-7.3085296E-1,9.213842E-2,9.0535223E-1],"default_left":[true,true,true,true,true,true,true,true,true,false,false,false,false,true,true],"id":49,"leaf_child_counts":[0,0,0,0,0,0,0,0,0,0,0,0,0,0,0],"left_children":[1,3,5,-1,9,11,-1,-1,-1,-1,-1,-1,-1,-1,-1],"loss_changes":[5.9733667E0,1.4759476E0,2.2352197E0,1.4388509E0,2.2927089E0,3.5208976E0,4.5834017E-1,0E0,0E0,0E0,0E0,0E0,0E0,0E0,0E0],"parents":[2147483647,0,0,1,1,2,2,3,3,4,4,5,5,6,6],"right_children":[2,4,6,-1,10,12,-1,-1,-1,-1,-1,-1,-1,-1,-1],"split_conditions":[2.45E-1,5.699797E-2,7.8888893E-1,-3.4607057E-2,3.452381E-2,6.619048E-1,3.937555E-2,-6.8576727E-4,-4.6572365E-2,3.774753E-2,-1.43099E-2,1.4079139E-2,-3.654265E-2,4.6069208E-3,4.526761E-2],"split_indices":[2,3,4,5,2,2,5,2147483647,2147483647,0,0,0,0,2147483647,2147483647],"sum_hessian":[6.2848774E1,3.3994064E1,2.885471E1,7.9412546E0,2.605281E1,2.3243359E1,5.611351E0,2.3464508E0,5.594804E0,1.3497642E0,2.4703047E1,2.0121725E1,3.121632E0,1.0713397E0,4.5400114E0],"tree_param":{"num_deleted":"4","num_feature":"6","num_nodes":"15","size_leaf_vector":"0"}},{"base_weights":[5.5663418E-2,-5.925128E-1,2.6612514E-1,-7.892802E-1,-2.4198951E-1,1.5144281E-1,7.484304E-1,5.4927416E-2,-6.4603186E-1,2.503433E-1,-5.2214414E-1,9.3003136E-1,2.3976131E-1],"default_left":[true,true,true,true,true,true,true,true,true,false,false,true,true],"id":50,"leaf_child_counts":[0,0,0,0,0,0,0,0,0,0,0,0,0],"left_children":[1,-1,5,-1,-1,9,-1,-1,-1,-1,-1,-1,-1],"loss_changes":[8.256344E0,8.340249E-1,2.4036644E0,0E0,8.494995E-1,2.6633806E0,5.6109667E-1,0E0,0E0,0E0,0E0,0E0,0E0],"parents":[2147483647,0,0,1,1,2,2,4,4,5,5,6,6],"right_children":[2,-1,6,-1,-1,10,-1,-1,-1,-1,-1,-1,-1],"split_conditions":[3.5357144E-2,-2.962564E-2,6.961539E-1,-3.9464008E-2,-1.2099476E-2,3.2285714E-1,3.742152E-2,2.7463709E-3,-3.2301594E-2,1.2517164E-2,-2.6107207E-2,4.650157E-2,1.1988065E-2],"split_indices":[0,3,4,2147483647,2147483647,0,1,2147483647,2147483647,0,0,2147483647,2147483647],"sum_hessian":[5.8367268E1,1.3861518E1,4.450575E1,8.076198E0,5.785321E0,3.7017693E1,7.4880543E0,3.83279E0,1.9525312E0,3.2826267E1,4.191426E0,4.907614E0,2.58044E0],"tree_param":{"num_deleted":"6","num_feature":"6","num_nodes":"13","size_leaf_vector":"0"}},{"base_weights":[-8.163515E-2,-6.8217444E-1,1.3530284E-1,-4.143049E-1,-8.867205E-1,3.785403E-2,7.5400746E-1,-8.6398166E-1,1.2447732E-1,1.0693219E0,-2.5967127E-2],"default_left":[true,true,true,true,false,true,false,false,false,false,false],"id":51,"leaf_child_counts":[0,0,0,0,0,0,0,0,0,0,0],"left_children":[1,3,5,7,-1,9,-1,-1,-1,-1,-1],"loss_changes":[7.973985E0,5.2135944E-1,2.7013566E0,2.2638192E0,0E0,2.6721184E0,0E0,0E0,0E0,0E0,0E0],"parents":[2147483647,0,0,1,1,2,2,3,3,5,5],"right_children":[2,4,6,8,-1,10,-1,-1,-1,-1,-1],"split_conditions":[1.325E-1,4.482143E-2,7.8888893E-1,2.672619E-2,-4.4336025E-2,1.4107144E-1,3.7700374E-2,-4.3199085E-2,6.2238663E-3,5.3466093E-2,-1.2983563E-3],"split_indices":[4,2,4,1,0,3,0,0,0,0,0],"sum_hessian":[5.9498142E1,1.5220203E1,4.427794E1,7.9E0,7.320204E0,3.9169712E1,5.108227E0,3.9770796E0,3.9229205E0,1.3643483E0,3.7805363E1],"tree_param":{"num_deleted":"0","num_feature":"6","num_nodes":"11","size_leaf_vector":"0"}},{"base_weights":[-3.4962896E-2,-2.1520692E-1,4.3932828E-1,-1.07828945E-1,-8.519632E-1,-1.8107514E-1,5.5245024E-1,-6.5097153E-1,3.721934E-2,-1.3910449E0,5.143691E-2,3.892104E-1,-6.3307E-1,8.7128294E-1,1.9895686E-1],"default_left":[true,true,true,true,true,true,true,false,false,false,false,true,true,true,true],"id":52,"leaf_child_counts":[0,0,0,0,0,0,0,0,0,0,0,0,0,0,0],"left_children":[1,3,-1,7,9,-1,-1,-1,-1,-1,-1,-1,-1,-1,-1],"loss_changes":[5.2629666E0,2.9494097E0,1.2915356E0,3.1130075E0,3.1268163E0,1.1154189E0,1.4728384E0,0E0,0E0,0E0,0E0,0E0,0E0,0E0,0E0],"parents":[2147483647,0,0,1,1,2,2,3,3,4,4,5,5,6,6],"right_children":[2,4,-1,8,10,-1,-1,-1,-1,-1,-1,-1,-1,-1,-1],"split_conditions":[-4.0106457E-1,-4.9146396E-1,2.1966415E-2,5.4371923E-2,5.364341E-1,-9.053757E-3,2.7622512E-2,-3.2548577E-2,1.8609671E-3,-6.955224E-2,2.5718454E-3,1.946052E-2,-3.16535E-2,4.356415E-2,9.947843E-3],"split_indices":[5,5,4,3,3,2147483647,2147483647,0,0,0,0,2147483647,2147483647,2147483647,2147483647],"sum_hessian":[5.9457733E1,4.3480263E1,1.5977471E1,3.8206703E1,5.2735615E0,2.3713562E0,1.3606115E1,7.317582E0,3.088912E1,2.9646761E0,2.308885E0,1.1098963E0,1.2614601E0,6.3836317E0,7.222483E0],"tree_param":{"num_deleted":"6","num_feature":"6","num_nodes":"15","size_leaf_vector":"0"}},{"base_weights":[-6.892263E-2,-3.022264E-1,3.272552E-1,-4.007941E-1,1.4329034E-1,7.490444E-1,5.384516E-2,-1.6998975E-1,-8.717934E-1,7.739772E-1,-3.0695117E-1,8.2714444E-1,6.8068445E-2,-9.150676E-1,3.0901292E-1],"default_left":[true,true,true,true,true,true,true,false,false,false,false,true,true,false,false],"id":53,"leaf_child_counts":[0,0,0,0,0,0,0,0,0,0,0,0,0,0,0],"left_children":[1,3,5,7,9,-1,13,-1,-1,-1,-1,-1,-1,-1,-1],"loss_changes":[5.686963E0,1.7511759E0,2.5990665E0,3.313734E0,2.4309132E0,4.1830063E-1,3.9822948E0,0E0,0E0,0E0,0E0,0E0,0E0,0E0,0E0],"parents":[2147483647,0,0,1,1,2,2,3,3,4,4,5,5,6,6],"right_children":[2,4,6,8,10,-1,14,-1,-1,-1,-1,-1,-1,-1,-1],"split_conditions":[1.7403847E-1,-5.6531906E-1,2.4115384E-1,-7.616644E-1,-4.6710908E-1,3.745222E-2,2.6821706E-1,-8.499487E-3,-4.358967E-2,3.8698863E-2,-1.5347558E-2,4.1357223E-2,3.4034222E-3,-4.5753382E-2,1.5450646E-2],"split_indices":[0,5,0,5,5,5,0,0,0,0,0,2147483647,2147483647,0,0],"sum_hessian":[5.945734E1,3.757001E1,2.188733E1,3.0845932E1,6.7240777E0,7.9237432E0,1.3963585E1,2.1614882E1,9.231051E0,2.501297E0,4.2227807E0,6.9159217E0,1.0078213E0,2.371704E0,1.1591881E1],"tree_param":{"num_deleted":"2","num_feature":"6","num_nodes":"15","size_leaf_vector":"0"}},{"base_weights":[-3.944566E-2,-7.485405E-1,7.007281E-2,-9.0673405E-1,-1.6812882E-1,1.696896E-3,6.898048E-1,9.38606E-2,-6.8744266E-1,6.473427E-2,8.2893497E-1],"default_left":[true,true,true,true,true,true,true,false,false,true,true],"id":54,"leaf_child_counts":[0,0,0,0,0,0,0,0,0,0,0],"left_children":[1,-1,5,-1,-1,7,-1,-1,-1,-1,-1],"loss_changes":[4.6955247E0,5.8983564E-1,2.232131E0,0E0,0E0,3.1429682E0,4.015715E-1,0E0,0E0,0E0,0E0],"parents":[2147483647,0,0,1,1,2,2,5,5,6,6],"right_children":[2,-1,6,-1,-1,8,-1,-1,-1,-1,-1],"split_conditions":[6.5476194E-2,-3.7427027E-2,7.8888893E-1,-4.5336705E-2,-8.406441E-3,-1.5337706E-1,3.449024E-2,4.69303E-3,-3.4372132E-2,3.2367136E-3,4.144675E-2],"split_indices":[4,2,3,2147483647,2147483647,5,5,0,0,2147483647,2147483647],"sum_hessian":[5.8787956E1,7.0843525E0,5.1703606E1,5.1252255E0,1.959127E0,4.7469017E1,4.2345862E0,4.263141E1,4.837611E0,1.0377157E0,3.1968706E0],"tree_param":{"num_deleted":"4","num_feature":"6","num_nodes":"11","size_leaf_vector":"0"}},{"base_weights":[-4.119601E-2,-2.6868498E-1,3.2814863E-1,-8.494975E-1,-1.8113011E-1,5.2134496E-1,-1.4721353E-1,-4.639383E-2,-7.230125E-1,1.9085316E-2,7.4562913E-1,-6.626221E-1,7.852481E-1],"default_left":[true,true,true,false,true,true,true,false,false,true,true,false,false],"id":55,"leaf_child_counts":[0,0,0,0,0,0,0,0,0,0,0,0,0],"left_children":[1,3,5,-1,7,-1,11,-1,-1,-1,-1,-1,-1],"loss_changes":[5.185572E0,1.7832911E0,2.2417653E0,0E0,2.47616E0,1.8987823E0,4.169103E0,0E0,0E0,0E0,0E0,0E0,0E0],"parents":[2147483647,0,0,1,1,2,2,4,4,5,5,6,6],"right_children":[2,4,6,-1,8,-1,12,-1,-1,-1,-1,-1,-1],"split_conditions":[1.7403847E-1,2.672619E-2,5.2952385E-1,-4.2474877E-2,4.254762E-1,2.6067248E-2,6.4857143E-1,-2.3196915E-3,-3.6150627E-2,9.542658E-4,3.7281457E-2,-3.3131104E-2,3.9262407E-2],"split_indices":[0,1,1,0,4,4,1,0,0,2147483647,2147483647,0,0],"sum_hessian":[5.966761E1,3.7093372E1,2.2574238E1,3.7191558E0,3.3374214E1,1.598208E1,6.592157E0,2.7597784E1,5.7764316E0,5.2686396E0,1.0713441E1,4.43187E0,2.1602867E0],"tree_param":{"num_deleted":"2","num_feature":"6","num_nodes":"13","size_leaf_vector":"0"}},{"base_weights":[8.464623E-2,-2.562894E-1,3.9373875E-1,-6.940477E-1,-5.729856E-2,7.440703E-1,2.88213E-1,-1.6902867E-1,-8.2097954E-1,1.3799247E-1,-6.919988E-1,3.2799068E-1,1.0178331E0,-4.2537966E-1,4.536867E-1],"default_left":[true,true,true,true,true,true,true,true,true,false,false,true,true,false,false],"id":56,"leaf_child_counts":[0,0,0,0,0,0,0,0,0,0,0,0,0,0,0],"left_children":[1,3,5,-1,9,-1,13,-1,-1,-1,-1,-1,-1,-1,-1],"loss_changes":[6.461983E0,2.5133028E0,9.7056055E-1,4.6562195E-1,2.7281356E0,4.3935418E-1,3.2945294E0,0E0,0E0,0E0,0E0,0E0,0E0,0E0,0E0],"parents":[2147483647,0,0,1,1,2,2,3,3,4,4,5,5,6,6],"right_children":[2,4,6,-1,10,-1,14,-1,-1,-1,-1,-1,-1,-1,-1],"split_conditions":[2.2361112E-1,6.823276E-2,3.3527133E-1,-3.4702387E-2,-7.1692914E-1,3.7203517E-2,3.5634923E-1,-8.451434E-3,-4.1048978E-2,6.8996237E-3,-3.459994E-2,1.6399534E-2,5.0891656E-2,-2.1268984E-2,2.2684336E-2],"split_indices":[2,4,3,5,5,2,2,2147483647,2147483647,0,0,2147483647,2147483647,0,0],"sum_hessian":[5.936281E1,2.8308626E1,3.1054184E1,8.069269E0,2.0239357E1,5.787933E0,2.526625E1,2.0250118E0,6.0442576E0,1.607563E1,4.1637273E0,3.1692371E0,2.6186957E0,4.4604073E0,2.0805843E1],"tree_param":{"num_deleted":"4","num_feature":"6","num_nodes":"15","size_leaf_vector":"0"}},{"base_weights":[4.0221877E-2,-2.0180038E-1,3.746613E-1,-7.732979E-1,-1.114987E-1,6.3371795E-1,9.475234E-2,8.862122E-2,-5.018826E-1,7.4127674E-1,-2.837212E-1,-1.1564423E0,3.0293605E-1],"default_left":[true,true,true,false,true,true,true,false,false,true,true,false,false],"id":57,"leaf_child_counts":[0,0,0,0,0,0,0,0,0,0,0,0,0],"left_children":[1,3,5,-1,7,-1,11,-1,-1,-1,-1,-1,-1],"loss_changes":[5.078415E0,1.7978588E0,1.8469822E0,0E0,2.5987358E0,1.5407648E0,3.9492903E0,0E0,0E0,0E0,0E0,0E0,0E0],"parents":[2147483647,0,0,1,1,2,2,4,4,5,5,6,6],"right_children":[2,4,6,-1,8,-1,12,-1,-1,-1,-1,-1,-1],"split_conditions":[-5.577613E-1,2.0344827E-2,2.6168478E-1,-3.8664896E-2,-7.0932925E-1,3.16859E-2,4.4047618E-1,4.431061E-3,-2.5094131E-2,3.7063837E-2,-1.4186061E-2,-5.7822116E-2,1.5146802E-2],"split_indices":[5,0,0,0,5,2,4,0,0,2147483647,2147483647,0,0],"sum_hessian":[6.080749E1,3.5508102E1,2.5299387E1,3.8130074E0,3.1695095E1,1.2482643E1,1.2816743E1,2.1464752E1,1.0230344E1,1.1344636E1,1.1380072E0,1.1785693E0,1.1638174E1],"tree_param":{"num_deleted":"2","num_feature":"6","num_nodes":"13","size_leaf_vector":"0"}},{"base_weights":[-4.3434672E-2,-7.066257E-1,5.121017E-2,-8.867183E-1,-6.383226E-2,-5.85825E-2,3.4962535E-1,7.032418E-2,-5.916831E-1,-2.9230192E-1,4.2533186E-1],"default_left":[true,true,true,true,true,true,true,false,false,true,true],"id":58,"leaf_child_counts":[0,0,0,0,0,0,0,0,0,0,0],"left_children":[1,-1,5,-1,-1,7,-1,-1,-1,-1,-1],"loss_changes":[3.7388074E0,8.040519E-1,1.7423738E0,0E0,0E0,2.7406611E0,8.1824577E-1,0E0,0E0,0E0,0E0],"parents":[2147483647,0,0,1,1,2,2,5,5,6,6],"right_children":[2,-1,6,-1,-1,8,-1,-1,-1,-1,-1],"split_conditions":[5.4371923E-2,-3.5331286E-2,5.364341E-1,-4.4335913E-2,-3.1916131E-3,4.0232557E-1,1.7481267E-2,3.516209E-3,-2.9584154E-2,-1.4615096E-2,2.1266593E-2],"split_indices":[3,2,3,2147483647,2147483647,3,2,0,0,2147483647,2147483647],"sum_hessian":[5.798936E1,6.434656E0,5.1554707E1,4.7299743E0,1.7046818E0,3.827594E1,1.3278765E1,3.1521864E1,6.754077E0,1.0990194E0,1.2179745E1],"tree_param":{"num_deleted":"4","num_feature":"6","num_nodes":"11","size_leaf_vector":"0"}},{"base_weights":[7.178046E-2,-4.2353532E-1,3.173144E-1,-8.626732E-1,-2.6429388E-1,4.19764E-1,-2.009339E-1,1.8576747E-1,-4.975497E-1,2.1159998E-1,7.706342E-1,-1.0853306E0,4.7769812E-1],"default_left":[true,true,true,true,true,true,true,true,true,false,false,false,false],"id":59,"leaf_child_counts":[0,0,0,0,0,0,0,0,0,0,0,0,0],"left_children":[1,-1,5,-1,-1,9,11,-1,-1,-1,-1,-1,-1],"loss_changes":[7.3619647E0,1.1792791E0,2.2242923E0,0E0,1.7942036E0,2.318481E0,4.917047E0,0E0,0E0,0E0,0E0,0E0,0E0],"parents":[2147483647,0,0,1,1,2,2,4,4,5,5,6,6],"right_children":[2,-1,6,-1,-1,10,12,-1,-1,-1,-1,-1,-1],"split_conditions":[9.3303576E-2,-2.1176767E-2,5.2952385E-1,-4.313366E-2,-1.3214694E-2,-4.439325E-1,5.569231E-1,9.288373E-3,-2.4877487E-2,1.0579999E-2,3.853171E-2,-5.426653E-2,2.3884906E-2],"split_indices":[1,1,1,2147483647,2147483647,5,1,2147483647,2147483647,0,0,0,0],"sum_hessian":[5.8429035E1,1.9124405E1,3.9304634E1,3.9138486E0,1.5210556E1,3.2975853E1,6.32878E0,5.2617426E0,9.948813E0,2.1702988E1,1.1272863E1,2.4876153E0,3.8411646E0],"tree_param":{"num_deleted":"4","num_feature":"6","num_nodes":"13","size_leaf_vector":"0"}},{"base_weights":[4.9055886E-2,-3.7855464E-1,2.710353E-1,-1.9118021E-1,-8.1450146E-1,9.598594E-1,2.0614065E-1,-3.7940118E-1,9.3115664E-1,-9.9904543E-1,-2.0841008E-1,-4.9743617E-1,3.165805E-1],"default_left":[true,true,true,true,true,false,true,false,false,true,true,false,false],"id":60,"leaf_child_counts":[0,0,0,0,0,0,0,0,0,0,0,0,0],"left_children":[1,3,5,7,-1,-1,11,-1,-1,-1,-1,-1,-1],"loss_changes":[5.449376E0,1.4507115E0,1.4856975E0,3.5348837E0,4.1871476E-1,0E0,2.93097E0,0E0,0E0,0E0,0E0,0E0,0E0],"parents":[2147483647,0,0,1,1,2,2,3,3,4,4,6,6],"right_children":[2,4,6,8,-1,-1,12,-1,-1,-1,-1,-1,-1],"split_conditions":[1.5692309E-1,1.025E-1,2.2749999E-1,6.2142856E-2,-4.0725075E-2,4.799297E-2,2.3511904E-1,-1.897006E-2,4.6557833E-2,-4.9952272E-2,-1.0420504E-2,-2.487181E-2,1.5829025E-2],"split_indices":[3,3,4,1,0,0,3,0,0,2147483647,2147483647,0,0],"sum_hessian":[5.532883E1,1.8666063E1,3.666277E1,1.40610285E1,4.605035E0,1.9692405E0,3.4693527E1,1.2608483E1,1.4525454E0,3.0331528E0,1.571882E0,4.2315497E0,3.0461977E1],"tree_param":{"num_deleted":"2","num_feature":"6","num_nodes":"13","size_leaf_vector":"0"}},{"base_weights":[-8.311995E-2,-1.6625924E-1,5.256359E-1,-8.4405535E-1,-9.920272E-2,6.957527E-1,4.834132E-2,2.807116E-1,-2.1367829E-1,6.3683555E-2,8.365484E-1],"default_left":[true,true,true,false,true,true,true,false,false,true,true],"id":61,"leaf_child_counts":[0,0,0,0,0,0,0,0,0,0,0],"left_children":[1,3,-1,-1,7,-1,-1,-1,-1,-1,-1],"loss_changes":[3.024373E0,2.2713664E0,5.5205333E-1,0E0,2.1599374E0,4.13332E-1,0E0,0E0,0E0,0E0,0E0],"parents":[2147483647,0,0,1,1,2,2,4,4,5,5],"right_children":[2,4,-1,-1,8,-1,-1,-1,-1,-1,-1],"split_conditions":[6.961539E-1,3.3E-2,2.6281795E-2,-4.2202767E-2,-8.74932E-1,3.4787636E-2,2.417066E-3,1.403558E-2,-1.0683915E-2,3.1841777E-3,4.182742E-2],"split_indices":[4,2,1,0,5,2147483647,2147483647,0,0,2147483647,2147483647],"sum_hessian":[5.702988E1,5.0816616E1,6.2132645E0,3.5316875E0,4.728493E1,4.243205E0,1.9700592E0,1.0612541E1,3.667239E1,1.0375736E0,3.2056315E0],"tree_param":{"num_deleted":"4","num_feature":"6","num_nodes":"11","size_leaf_vector":"0"}},{"base_weights":[3.8876828E-2,-8.0707186E-1,1.0372283E-1,7.106754E-1,4.407064E-2,-2.7529355E-2,1.4504106E0,-1.7858425E-1,2.2757898E-1],"default_left":[true,false,true,true,true,false,false,false,false],"id":62,"leaf_child_counts":[0,0,0,0,0,0,0,0,0],"left_children":[1,-1,3,5,7,-1,-1,-1,-1],"loss_changes":[3.1883285E0,0E0,1.9039675E0,2.61584E0,2.0727623E0,0E0,0E0,0E0,0E0],"parents":[2147483647,0,0,2,2,3,3,4,4],"right_children":[2,-1,4,6,8,-1,-1,-1,-1],"split_conditions":[2.672619E-2,-4.0353592E-2,4.5833334E-2,-9.180136E-1,2.3802325E-1,-1.3764678E-3,7.252053E-2,-8.929213E-3,1.13789495E-2],"split_indices":[1,0,2,5,2,0,0,0,0],"sum_hessian":[5.559535E1,3.1433103E0,5.2452038E1,3.717129E0,4.873491E1,2.34238E0,1.374749E0,2.203101E1,2.6703897E1],"tree_param":{"num_deleted":"0","num_feature":"6","num_nodes":"9","size_leaf_vector":"0"}},{"base_weights":[-6.3825306E-3,-6.592286E-1,1.2306929E-1,-7.862212E-1,-2.7461183E-1,5.744923E-2,8.126256E-1,2.0754157E-1,-5.3263384E-1,1.0996074E-1,-8.7295943E-1],"default_left":[true,true,true,true,true,true,false,true,true,false,false],"id":63,"leaf_child_counts":[0,0,0,0,0,0,0,0,0,0,0],"left_children":[1,-1,5,-1,-1,9,-1,-1,-1,-1,-1],"loss_changes":[4.8749146E0,2.502389E-1,2.1333716E0,0E0,5.964369E-1,2.2979343E0,0E0,0E0,0E0,0E0,0E0],"parents":[2147483647,0,0,1,1,2,2,4,4,5,5],"right_children":[2,-1,6,-1,-1,10,-1,-1,-1,-1,-1],"split_conditions":[4.1517857E-2,-3.2961432E-2,7.8888893E-1,-3.9311063E-2,-1.3730592E-2,6.747093E-1,4.063128E-2,1.0377078E-2,-2.6631692E-2,5.498037E-3,-4.364797E-2],"split_indices":[1,3,3,2147483647,2147483647,2,0,2147483647,2147483647,0,0],"sum_hessian":[5.5723038E1,8.54364E0,4.7179398E1,5.63794E0,2.9057004E0,4.4068985E1,3.110412E0,1.0811155E0,1.8245848E0,4.254935E1,1.5196363E0],"tree_param":{"num_deleted":"4","num_feature":"6","num_nodes":"11","size_leaf_vector":"0"}},{"base_weights":[4.4953967E-3,-4.0001968E-1,1.6657078E-1,2.3636657E-1,-5.202661E-1,6.397759E-1,7.07247E-2,-5.792791E-1,9.306079E-1,-6.2578857E-1,1.02826454E-1,1.5623322E-1,1.2500187E0,-1.7242609E-1,3.4938994E-1],"default_left":[true,true,true,true,true,true,true,false,false,true,true,true,true,false,false],"id":64,"leaf_child_counts":[0,0,0,0,0,0,0,0,0,0,0,0,0,0,0],"left_children":[1,3,5,7,-1,-1,13,-1,-1,-1,-1,-1,-1,-1,-1],"loss_changes":[3.8498213E0,1.4085975E0,1.8552836E0,2.4403324E0,1.0139701E0,1.8506603E0,2.497488E0,0E0,0E0,0E0,0E0,0E0,0E0,0E0,0E0],"parents":[2147483647,0,0,1,1,2,2,3,3,4,4,5,5,6,6],"right_children":[2,4,6,8,-1,-1,14,-1,-1,-1,-1,-1,-1,-1,-1],"split_conditions":[5.3035714E-2,-9.678762E-1,-8.165591E-1,-9.7805625E-1,-2.6013305E-2,3.1988796E-2,-4.439325E-1,-2.8963957E-2,4.6530396E-2,-3.128943E-2,5.141323E-3,7.8116613E-3,6.250094E-2,-8.621304E-3,1.7469497E-2],"split_indices":[0,5,5,5,1,5,5,0,0,2147483647,2147483647,2147483647,2147483647,0,0],"sum_hessian":[5.6704056E1,1.5800455E1,4.09036E1,2.3575876E0,1.3442867E1,5.9335957E0,3.4970005E1,1.160151E0,1.1974366E0,1.1492289E1,1.9505787E0,4.0112166E0,1.9223791E0,1.8878614E1,1.609139E1],"tree_param":{"num_deleted":"4","num_feature":"6","num_nodes":"15","size_leaf_vector":"0"}},{"base_weights":[-3.826444E-3,-6.667632E-1,8.547787E-2,-1.2303578E-1,-7.4256796E-1,7.890102E-3,5.6944895E-1,-8.395556E-1,-1.4884318E-1,1.254599E-1,-6.129847E-1,-3.520697E-2,8.908096E-1],"default_left":[true,true,true,true,true,true,true,true,true,false,false,true,true],"id":65,"leaf_child_counts":[0,0,0,0,0,0,0,0,0,0,0,0,0],"left_children":[1,-1,5,-1,-1,9,-1,-1,-1,-1,-1,-1,-1],"loss_changes":[3.3842843E0,1.8832517E-1,1.8886232E0,0E0,2.0653939E-1,3.3226006E0,1.3821495E0,0E0,0E0,0E0,0E0,0E0,0E0],"parents":[2147483647,0,0,1,1,2,2,4,4,5,5,6,6],"right_children":[2,-1,6,-1,-1,10,-1,-1,-1,-1,-1,-1,-1],"split_conditions":[6.5476194E-2,-3.333816E-2,3.3527133E-1,-6.1517893E-3,-3.71284E-2,2.4714285E-1,2.8472448E-2,-4.197778E-2,-7.442159E-3,6.272995E-3,-3.0649235E-2,-1.7603486E-3,4.454048E-2],"split_indices":[4,5,0,2147483647,2147483647,0,4,2147483647,2147483647,0,0,2147483647,2147483647],"sum_hessian":[5.5201275E1,5.785716E0,4.941556E1,1.0288814E0,4.756835E0,4.3463947E1,5.951615E0,3.7329857E0,1.023849E0,3.721482E1,6.2491245E0,2.3744373E0,3.5771773E0],"tree_param":{"num_deleted":"6","num_feature":"6","num_nodes":"13","size_leaf_vector":"0"}},{"base_weights":[1.2175011E-2,-5.1648176E-1,9.6202366E-2,-6.997502E-1,-1.0573757E-1,2.9303206E-2,5.292062E-1,4.151667E-1,-6.2892956E-1,2.6890576E-1,-2.1871562E-1,1.9614774E-1,7.701304E-1],"default_left":[true,true,true,true,true,true,true,true,true,false,false,true,true],"id":66,"leaf_child_counts":[0,0,0,0,0,0,0,0,0,0,0,0,0],"left_children":[1,-1,5,-1,-1,9,-1,-1,-1,-1,-1,-1,-1],"loss_changes":[2.5405078E0,5.167134E-1,1.4104264E0,0E0,1.2419696E0,2.6555042E0,3.728317E-1,0E0,0E0,0E0,0E0,0E0,0E0],"parents":[2147483647,0,0,1,1,2,2,4,4,5,5,6,6],"right_children":[2,-1,6,-1,-1,10,-1,-1,-1,-1,-1,-1,-1],"split_conditions":[6.823276E-2,-2.5824089E-2,3.3527133E-1,-3.498751E-2,-5.2868784E-3,3.0555558E-1,2.646031E-2,2.0758336E-2,-3.144648E-2,1.3445288E-2,-1.09357815E-2,9.807387E-3,3.850652E-2],"split_indices":[4,0,0,2147483647,2147483647,3,4,2147483647,2147483647,0,0,2147483647,2147483647],"sum_hessian":[5.5072258E1,6.8471203E0,4.822514E1,4.248073E0,2.5990472E0,4.2696236E1,5.528901E0,1.4058341E0,1.1932132E0,2.167375E1,2.1022488E1,3.0821803E0,2.446721E0],"tree_param":{"num_deleted":"6","num_feature":"6","num_nodes":"13","size_leaf_vector":"0"}},{"base_weights":[2.7842978E-2,-4.4852528E-1,1.7604828E-1,1.7372185E-1,-5.664731E-1,1.0180738E0,1.21266924E-1,-7.44105E-1,-2.824455E-1,-2.1938121E-1,2.2491391E-1],"default_left":[true,true,true,true,true,true,true,true,true,true,true],"id":67,"leaf_child_counts":[0,0,0,0,0,0,0,0,0,0,0],"left_children":[1,-1,-1,-1,-1,-1,-1,-1,-1,-1,-1],"loss_changes":[3.9890153E0,1.0836112E0,1.8581352E0,0E0,3.7101126E-1,0E0,1.5135403E0,0E0,0E0,0E0,0E0],"parents":[2147483647,0,0,1,1,2,2,4,4,6,6],"right_children":[2,-1,-1,-1,-1,-1,-1,-1,-1,-1,-1],"split_conditions":[1.2613636E-1,-2.2426264E-2,8.802414E-3,8.686093E-3,-2.8323656E-2,5.090369E-2,6.0633463E-3,-3.720525E-2,-1.4122275E-2,-1.09690605E-2,1.1245696E-2],"split_indices":[4,5,3,2147483647,2147483647,2147483647,2147483647,2147483647,2147483647,2147483647,2147483647],"sum_hessian":[5.4382954E1,1.2423712E1,4.195924E1,1.9043308E0,1.05193815E1,1.48894E0,4.0470303E1,5.475286E0,5.044095E0,9.180589E0,3.1289713E1],"tree_param":{"num_deleted":"8","num_feature":"6","num_nodes":"11","size_leaf_vector":"0"}},{"base_weights":[-6.553438E-3,-7.685848E-1,4.728932E-2,3.1785688E-1,-6.31751E-2,-2.2391677E-1,6.8557763E-1,-4.4057444E-1,1.391986E-1],"default_left":[true,false,true,true,true,false,false,false,false],"id":68,"leaf_child_counts":[0,0,0,0,0,0,0,0,0],"left_children":[1,-1,3,5,7,-1,-1,-1,-1],"loss_changes":[2.303636E0,0E0,1.5908415E0,3.2218943E0,2.9752803E0,0E0,0E0,0E0,0E0],"parents":[2147483647,0,0,2,2,3,3,4,4],"right_children":[2,-1,4,6,8,-1,-1,-1,-1],"split_conditions":[2.672619E-2,-3.842924E-2,-8.184773E-1,-9.23769E-1,-6.1885625E-1,-1.1195838E-2,3.427888E-2,-2.2028722E-2,6.95993E-3],"split_indices":[1,0,5,5,5,0,0,0,0],"sum_hessian":[5.4259506E1,2.7047546E0,5.155475E1,1.4401869E1,3.715288E1,5.9809823E0,8.420887E0,1.2557612E1,2.4595268E1],"tree_param":{"num_deleted":"0","num_feature":"6","num_nodes":"9","size_leaf_vector":"0"}},{"base_weights":[-2.5650589E-2,-8.567717E-2,6.342478E-1,-3.9749697E-2,-1.0481386E0,7.5135076E-1,2.087878E-1,-1.0246755E-1,6.7904395E-1],"default_left":[true,true,true,true,false,true,true,false,false],"id":69,"leaf_child_counts":[0,0,0,0,0,0,0,0,0],"left_children":[1,3,-1,7,-1,-1,-1,-1,-1],"loss_changes":[2.2479365E0,2.2410672E0,7.910466E-2,2.3384655E0,0E0,0E0,0E0,0E0,0E0],"parents":[2147483647,0,0,1,1,2,2,3,3],"right_children":[2,4,-1,8,-1,-1,-1,-1,-1],"split_conditions":[7.8888893E-1,6.747093E-1,3.171239E-2,6.7054266E-1,-5.2406933E-2,3.7567537E-2,1.043939E-2,-5.123378E-3,3.39522E-2],"split_indices":[4,2,1,4,0,2147483647,2147483647,0,0],"sum_hessian":[5.4377834E1,5.064148E1,3.7363536E0,4.932887E1,1.3126125E0,2.329275E0,1.4070789E0,4.615876E1,3.1701066E0],"tree_param":{"num_deleted":"2","num_feature":"6","num_nodes":"9","size_leaf_vector":"0"}}]},"name":"gbtree"},"learner_model_param":{"base_score":"5E-1","num_class":"0","num_feature":"6"},"objective":{"name":"binary:logistic","reg_loss_param":{"scale_pos_weight":"0.846394956"}}},"version":[1,2,1]}